<?xml version="1.0"?>
<opencv_storage>
<cascade>
  <stageType>BOOST</stageType>
  <featureType>HAAR</featureType>
  <height>14</height>
  <width>20</width>
  <stageParams>
    <boostType>GAB</boostType>
    <minHitRate>9.9900001287460327e-01</minHitRate>
    <maxFalseAlarm>5.0000000000000000e-01</maxFalseAlarm>
    <weightTrimRate>9.4999999999999996e-01</weightTrimRate>
    <maxDepth>1</maxDepth>
    <maxWeakCount>100</maxWeakCount></stageParams>
  <featureParams>
    <maxCatCount>0</maxCatCount>
    <featSize>1</featSize>
    <mode>ALL</mode></featureParams>
  <stageNum>20</stageNum>
  <stages>
    <!-- stage 0 -->
    <_>
      <maxWeakCount>10</maxWeakCount>
      <stageThreshold>-7.8651535511016846e-01</stageThreshold>
      <weakClassifiers>
        <_>
          <internalNodes>
            0 -1 71 1.3349908590316772e-01</internalNodes>
          <leafValues>
            8.8135594129562378e-01 -9.3103450536727905e-01</leafValues></_>
        <_>
          <internalNodes>
            0 -1 165 -3.3608186058700085e-03</internalNodes>
          <leafValues>
            7.9773032665252686e-01 -1.0165704786777496e-01</leafValues></_>
        <_>
          <internalNodes>
            0 -1 206 2.8015853604301810e-04</internalNodes>
          <leafValues>
            4.9154356122016907e-01 -4.8674678802490234e-01</leafValues></_>
        <_>
          <internalNodes>
            0 -1 136 2.7066480834037066e-04</internalNodes>
          <leafValues>
            3.9435946941375732e-01 -5.2248996496200562e-01</leafValues></_>
        <_>
          <internalNodes>
            0 -1 213 1.7678180302027613e-04</internalNodes>
          <leafValues>
            3.7962296605110168e-01 -5.3585869073867798e-01</leafValues></_>
        <_>
          <internalNodes>
            0 -1 71 -4.9897648394107819e-02</internalNodes>
          <leafValues>
            5.2208048105239868e-01 -5.3002941608428955e-01</leafValues></_>
        <_>
          <internalNodes>
            0 -1 197 2.4384177231695503e-04</internalNodes>
          <leafValues>
            3.5888236761093140e-01 -6.0220158100128174e-01</leafValues></_>
        <_>
          <internalNodes>
            0 -1 230 -2.6632493245415390e-04</internalNodes>
          <leafValues>
            -6.7982459068298340e-01 3.7214639782905579e-01</leafValues></_>
        <_>
          <internalNodes>
            0 -1 158 1.5136165893636644e-04</internalNodes>
          <leafValues>
            3.8964325189590454e-01 -5.3119766712188721e-01</leafValues></_>
        <_>
          <internalNodes>
            0 -1 174 -4.1076837806031108e-04</internalNodes>
          <leafValues>
            -7.3148334026336670e-01 3.5468178987503052e-01</leafValues></_></weakClassifiers></_>
    <!-- stage 1 -->
    <_>
      <maxWeakCount>13</maxWeakCount>
      <stageThreshold>-2.4327768385410309e-01</stageThreshold>
      <weakClassifiers>
        <_>
          <internalNodes>
            0 -1 31 1.8660466372966766e-01</internalNodes>
          <leafValues>
            8.6219739913940430e-01 -1.</leafValues></_>
        <_>
          <internalNodes>
            0 -1 83 -9.3843638896942139e-02</internalNodes>
          <leafValues>
            7.3788887262344360e-01 -1.5162913501262665e-01</leafValues></_>
        <_>
          <internalNodes>
            0 -1 134 1.4797629788517952e-02</internalNodes>
          <leafValues>
            -1.9116540253162384e-01 9.0344333648681641e-01</leafValues></_>
        <_>
          <internalNodes>
            0 -1 51 1.0624663904309273e-02</internalNodes>
          <leafValues>
            -1.4960712194442749e-01 8.9786350727081299e-01</leafValues></_>
        <_>
          <internalNodes>
            0 -1 259 1.0047271847724915e-02</internalNodes>
          <leafValues>
            -1.8951261043548584e-01 8.2207345962524414e-01</leafValues></_>
        <_>
          <internalNodes>
            0 -1 30 -2.6875929906964302e-03</internalNodes>
          <leafValues>
            8.3923572301864624e-01 -2.2080092132091522e-01</leafValues></_>
        <_>
          <internalNodes>
            0 -1 234 1.3835930440109223e-04</internalNodes>
          <leafValues>
            3.9523604512214661e-01 -5.3485530614852905e-01</leafValues></_>
        <_>
          <internalNodes>
            0 -1 169 -7.3782056570053101e-03</internalNodes>
          <leafValues>
            7.6007997989654541e-01 -3.4154045581817627e-01</leafValues></_>
        <_>
          <internalNodes>
            0 -1 63 -1.5431220526807010e-04</internalNodes>
          <leafValues>
            -5.8719706535339355e-01 3.8594615459442139e-01</leafValues></_>
        <_>
          <internalNodes>
            0 -1 202 3.2251453958451748e-03</internalNodes>
          <leafValues>
            -2.2401319444179535e-01 9.6719592809677124e-01</leafValues></_>
        <_>
          <internalNodes>
            0 -1 214 2.7129473164677620e-04</internalNodes>
          <leafValues>
            4.4670751690864563e-01 -4.4578197598457336e-01</leafValues></_>
        <_>
          <internalNodes>
            0 -1 37 -1.4209622517228127e-02</internalNodes>
          <leafValues>
            9.4205391407012939e-01 -2.1040661633014679e-01</leafValues></_>
        <_>
          <internalNodes>
            0 -1 48 1.9669393077492714e-04</internalNodes>
          <leafValues>
            3.1845390796661377e-01 -6.7335206270217896e-01</leafValues></_></weakClassifiers></_>
    <!-- stage 2 -->
    <_>
      <maxWeakCount>12</maxWeakCount>
      <stageThreshold>-2.9094666242599487e-01</stageThreshold>
      <weakClassifiers>
        <_>
          <internalNodes>
            0 -1 204 -3.3505004644393921e-01</internalNodes>
          <leafValues>
            -8.8235294818878174e-01 8.6033517122268677e-01</leafValues></_>
        <_>
          <internalNodes>
            0 -1 211 4.8492106725461781e-04</internalNodes>
          <leafValues>
            6.5955567359924316e-01 -2.8742828965187073e-01</leafValues></_>
        <_>
          <internalNodes>
            0 -1 150 -1.3126201927661896e-02</internalNodes>
          <leafValues>
            9.1913557052612305e-01 -1.8769475817680359e-01</leafValues></_>
        <_>
          <internalNodes>
            0 -1 222 2.0722715998999774e-04</internalNodes>
          <leafValues>
            4.1457870602607727e-01 -4.3259519338607788e-01</leafValues></_>
        <_>
          <internalNodes>
            0 -1 28 8.5845571011304855e-03</internalNodes>
          <leafValues>
            -3.0022084712982178e-01 6.7462944984436035e-01</leafValues></_>
        <_>
          <internalNodes>
            0 -1 76 3.0906643718481064e-02</internalNodes>
          <leafValues>
            -1.7509746551513672e-01 8.6395019292831421e-01</leafValues></_>
        <_>
          <internalNodes>
            0 -1 111 1.0397462174296379e-02</internalNodes>
          <leafValues>
            -1.8978491425514221e-01 8.5754245519638062e-01</leafValues></_>
        <_>
          <internalNodes>
            0 -1 235 2.7046055765822530e-04</internalNodes>
          <leafValues>
            3.9359602332115173e-01 -5.0906026363372803e-01</leafValues></_>
        <_>
          <internalNodes>
            0 -1 93 4.4419371988624334e-04</internalNodes>
          <leafValues>
            2.9096305370330811e-01 -7.0625835657119751e-01</leafValues></_>
        <_>
          <internalNodes>
            0 -1 158 3.8862030487507582e-04</internalNodes>
          <leafValues>
            2.9254937171936035e-01 -6.0796016454696655e-01</leafValues></_>
        <_>
          <internalNodes>
            0 -1 78 1.0204966180026531e-02</internalNodes>
          <leafValues>
            -2.3545008897781372e-01 9.2505931854248047e-01</leafValues></_>
        <_>
          <internalNodes>
            0 -1 124 2.2950107231736183e-03</internalNodes>
          <leafValues>
            3.7621670961380005e-01 -5.5455470085144043e-01</leafValues></_></weakClassifiers></_>
    <!-- stage 3 -->
    <_>
      <maxWeakCount>14</maxWeakCount>
      <stageThreshold>-5.3577977418899536e-01</stageThreshold>
      <weakClassifiers>
        <_>
          <internalNodes>
            0 -1 66 4.0990471839904785e-01</internalNodes>
          <leafValues>
            8.6367881298065186e-01 -8.0000001192092896e-01</leafValues></_>
        <_>
          <internalNodes>
            0 -1 97 -1.6657020896673203e-02</internalNodes>
          <leafValues>
            7.1324002742767334e-01 -1.1800119280815125e-01</leafValues></_>
        <_>
          <internalNodes>
            0 -1 161 1.9226640462875366e-02</internalNodes>
          <leafValues>
            -1.4384475350379944e-01 8.1988632678985596e-01</leafValues></_>
        <_>
          <internalNodes>
            0 -1 265 -2.6784563437104225e-02</internalNodes>
          <leafValues>
            -6.9158697128295898e-01 3.0625411868095398e-01</leafValues></_>
        <_>
          <internalNodes>
            0 -1 113 1.2551717460155487e-02</internalNodes>
          <leafValues>
            -1.8811790645122528e-01 9.3665933609008789e-01</leafValues></_>
        <_>
          <internalNodes>
            0 -1 89 1.4419318176805973e-03</internalNodes>
          <leafValues>
            3.0281046032905579e-01 -5.5569881200790405e-01</leafValues></_>
        <_>
          <internalNodes>
            0 -1 129 3.9066267199814320e-03</internalNodes>
          <leafValues>
            -3.4514161944389343e-01 5.4099631309509277e-01</leafValues></_>
        <_>
          <internalNodes>
            0 -1 153 1.5727560967206955e-02</internalNodes>
          <leafValues>
            -3.1738075613975525e-01 5.0970584154129028e-01</leafValues></_>
        <_>
          <internalNodes>
            0 -1 190 3.3194140996783972e-05</internalNodes>
          <leafValues>
            -4.0161111950874329e-01 4.6752688288688660e-01</leafValues></_>
        <_>
          <internalNodes>
            0 -1 216 3.5065696574747562e-03</internalNodes>
          <leafValues>
            2.6262050867080688e-01 -5.8505910634994507e-01</leafValues></_>
        <_>
          <internalNodes>
            0 -1 47 1.4475426636636257e-02</internalNodes>
          <leafValues>
            -1.8854975700378418e-01 8.8855928182601929e-01</leafValues></_>
        <_>
          <internalNodes>
            0 -1 177 -4.5765563845634460e-04</internalNodes>
          <leafValues>
            -6.1597508192062378e-01 2.7268886566162109e-01</leafValues></_>
        <_>
          <internalNodes>
            0 -1 137 3.0993861146271229e-03</internalNodes>
          <leafValues>
            -2.8381174802780151e-01 6.2351047992706299e-01</leafValues></_>
        <_>
          <internalNodes>
            0 -1 191 -6.3622940797358751e-04</internalNodes>
          <leafValues>
            -5.7603198289871216e-01 2.9172524809837341e-01</leafValues></_></weakClassifiers></_>
    <!-- stage 4 -->
    <_>
      <maxWeakCount>13</maxWeakCount>
      <stageThreshold>-1.8386919796466827e-01</stageThreshold>
      <weakClassifiers>
        <_>
          <internalNodes>
            0 -1 54 2.3206071555614471e-01</internalNodes>
          <leafValues>
            8.6891382932662964e-01 -8.2608693838119507e-01</leafValues></_>
        <_>
          <internalNodes>
            0 -1 71 -6.3696846365928650e-02</internalNodes>
          <leafValues>
            6.7888736724853516e-01 -1.6159541904926300e-01</leafValues></_>
        <_>
          <internalNodes>
            0 -1 184 4.7991257160902023e-02</internalNodes>
          <leafValues>
            -1.9417345523834229e-01 7.5448453426361084e-01</leafValues></_>
        <_>
          <internalNodes>
            0 -1 145 1.2319778092205524e-02</internalNodes>
          <leafValues>
            -3.1601467728614807e-01 6.2080329656600952e-01</leafValues></_>
        <_>
          <internalNodes>
            0 -1 186 1.0144127532839775e-02</internalNodes>
          <leafValues>
            -1.8710947036743164e-01 1.</leafValues></_>
        <_>
          <internalNodes>
            0 -1 251 -5.3230099380016327e-02</internalNodes>
          <leafValues>
            -7.4582529067993164e-01 2.5839191675186157e-01</leafValues></_>
        <_>
          <internalNodes>
            0 -1 263 2.2183002438396215e-03</internalNodes>
          <leafValues>
            2.2451049089431763e-01 -7.1328353881835938e-01</leafValues></_>
        <_>
          <internalNodes>
            0 -1 119 1.3122152537107468e-02</internalNodes>
          <leafValues>
            -2.7544373273849487e-01 6.5614444017410278e-01</leafValues></_>
        <_>
          <internalNodes>
            0 -1 205 -1.1980587150901556e-03</internalNodes>
          <leafValues>
            -5.7925444841384888e-01 3.0473369359970093e-01</leafValues></_>
        <_>
          <internalNodes>
            0 -1 18 -9.3121539975982159e-05</internalNodes>
          <leafValues>
            6.6466915607452393e-01 -2.9055503010749817e-01</leafValues></_>
        <_>
          <internalNodes>
            0 -1 258 8.2992166280746460e-03</internalNodes>
          <leafValues>
            -2.3763188719749451e-01 7.4812692403793335e-01</leafValues></_>
        <_>
          <internalNodes>
            0 -1 41 2.7139312587678432e-03</internalNodes>
          <leafValues>
            3.8427549600601196e-01 -4.1787943243980408e-01</leafValues></_>
        <_>
          <internalNodes>
            0 -1 181 -1.7115898663178086e-04</internalNodes>
          <leafValues>
            -4.9191594123840332e-01 3.0738320946693420e-01</leafValues></_></weakClassifiers></_>
    <!-- stage 5 -->
    <_>
      <maxWeakCount>14</maxWeakCount>
      <stageThreshold>-2.9788240790367126e-01</stageThreshold>
      <weakClassifiers>
        <_>
          <internalNodes>
            0 -1 141 -9.5033153891563416e-02</internalNodes>
          <leafValues>
            -7.3913043737411499e-01 8.6704117059707642e-01</leafValues></_>
        <_>
          <internalNodes>
            0 -1 126 -5.7148590683937073e-02</internalNodes>
          <leafValues>
            8.4656357765197754e-01 -9.4120644032955170e-02</leafValues></_>
        <_>
          <internalNodes>
            0 -1 142 -8.8881954550743103e-02</internalNodes>
          <leafValues>
            8.5341179370880127e-01 -8.9058831334114075e-02</leafValues></_>
        <_>
          <internalNodes>
            0 -1 223 2.3430604414897971e-05</internalNodes>
          <leafValues>
            -2.3368246853351593e-01 6.1637932062149048e-01</leafValues></_>
        <_>
          <internalNodes>
            0 -1 178 8.8559740106575191e-05</internalNodes>
          <leafValues>
            -2.0314489305019379e-01 8.8170427083969116e-01</leafValues></_>
        <_>
          <internalNodes>
            0 -1 57 -1.3252550363540649e-01</internalNodes>
          <leafValues>
            -6.9784408807754517e-01 2.7492368221282959e-01</leafValues></_>
        <_>
          <internalNodes>
            0 -1 159 3.2172571081900969e-05</internalNodes>
          <leafValues>
            -3.5638862848281860e-01 4.8677238821983337e-01</leafValues></_>
        <_>
          <internalNodes>
            0 -1 194 2.7014196384698153e-03</internalNodes>
          <leafValues>
            -2.4338814616203308e-01 6.6204303503036499e-01</leafValues></_>
        <_>
          <internalNodes>
            0 -1 50 6.1926664784550667e-05</internalNodes>
          <leafValues>
            -2.7815154194831848e-01 6.1218595504760742e-01</leafValues></_>
        <_>
          <internalNodes>
            0 -1 58 -5.1982828881591558e-04</internalNodes>
          <leafValues>
            -7.0012587308883667e-01 2.9634591937065125e-01</leafValues></_>
        <_>
          <internalNodes>
            0 -1 39 1.0368290357291698e-02</internalNodes>
          <leafValues>
            -2.6725631952285767e-01 7.4941760301589966e-01</leafValues></_>
        <_>
          <internalNodes>
            0 -1 79 1.6699537634849548e-02</internalNodes>
          <leafValues>
            -1.8274086713790894e-01 7.7107226848602295e-01</leafValues></_>
        <_>
          <internalNodes>
            0 -1 162 -2.5110226124525070e-02</internalNodes>
          <leafValues>
            8.9784026145935059e-01 -1.8634030222892761e-01</leafValues></_>
        <_>
          <internalNodes>
            0 -1 195 1.1124411597847939e-02</internalNodes>
          <leafValues>
            -3.3161139488220215e-01 5.5139023065567017e-01</leafValues></_></weakClassifiers></_>
    <!-- stage 6 -->
    <_>
      <maxWeakCount>12</maxWeakCount>
      <stageThreshold>-7.4076944589614868e-01</stageThreshold>
      <weakClassifiers>
        <_>
          <internalNodes>
            0 -1 3 -5.8626949787139893e-01</internalNodes>
          <leafValues>
            -9.0476191043853760e-01 8.6728972196578979e-01</leafValues></_>
        <_>
          <internalNodes>
            0 -1 86 -1.5391996502876282e-01</internalNodes>
          <leafValues>
            9.2789119482040405e-01 2.4692907929420471e-02</leafValues></_>
        <_>
          <internalNodes>
            0 -1 144 3.7438359111547470e-02</internalNodes>
          <leafValues>
            -2.1279200911521912e-01 7.7925252914428711e-01</leafValues></_>
        <_>
          <internalNodes>
            0 -1 96 1.2745501007884741e-03</internalNodes>
          <leafValues>
            -2.5518202781677246e-01 7.1214121580123901e-01</leafValues></_>
        <_>
          <internalNodes>
            0 -1 92 -1.0328290984034538e-02</internalNodes>
          <leafValues>
            8.8351047039031982e-01 -2.7143058180809021e-01</leafValues></_>
        <_>
          <internalNodes>
            0 -1 109 2.4184538051486015e-02</internalNodes>
          <leafValues>
            -2.6863372325897217e-01 8.0191218852996826e-01</leafValues></_>
        <_>
          <internalNodes>
            0 -1 24 -2.2971011276240461e-05</internalNodes>
          <leafValues>
            7.7776616811752319e-01 -1.9166663289070129e-01</leafValues></_>
        <_>
          <internalNodes>
            0 -1 139 4.5184465125203133e-03</internalNodes>
          <leafValues>
            -1.7067381739616394e-01 9.0375083684921265e-01</leafValues></_>
        <_>
          <internalNodes>
            0 -1 140 -7.8066408634185791e-02</internalNodes>
          <leafValues>
            -8.4468233585357666e-01 2.6521712541580200e-01</leafValues></_>
        <_>
          <internalNodes>
            0 -1 241 1.0845215991139412e-02</internalNodes>
          <leafValues>
            -3.0164259672164917e-01 6.6565245389938354e-01</leafValues></_>
        <_>
          <internalNodes>
            0 -1 138 1.1830113828182220e-02</internalNodes>
          <leafValues>
            -1.5045715868473053e-01 1.</leafValues></_>
        <_>
          <internalNodes>
            0 -1 102 7.5876424089074135e-03</internalNodes>
          <leafValues>
            -2.4019509553909302e-01 6.6072374582290649e-01</leafValues></_></weakClassifiers></_>
    <!-- stage 7 -->
    <_>
      <maxWeakCount>10</maxWeakCount>
      <stageThreshold>6.8316474556922913e-02</stageThreshold>
      <weakClassifiers>
        <_>
          <internalNodes>
            0 -1 4 -3.1564140319824219e-01</internalNodes>
          <leafValues>
            -9.0476191043853760e-01 8.6728972196578979e-01</leafValues></_>
        <_>
          <internalNodes>
            0 -1 7 3.0585929751396179e-01</internalNodes>
          <leafValues>
            5.3803324699401855e-01 -9.0654015541076660e-01</leafValues></_>
        <_>
          <internalNodes>
            0 -1 133 1.4491947367787361e-02</internalNodes>
          <leafValues>
            -2.0195388793945312e-01 8.9357781410217285e-01</leafValues></_>
        <_>
          <internalNodes>
            0 -1 248 -1.5579811588395387e-04</internalNodes>
          <leafValues>
            -5.6065011024475098e-01 3.5159114003181458e-01</leafValues></_>
        <_>
          <internalNodes>
            0 -1 170 3.3803015947341919e-02</internalNodes>
          <leafValues>
            -2.8775998950004578e-01 5.8784371614456177e-01</leafValues></_>
        <_>
          <internalNodes>
            0 -1 163 -4.0524775977246463e-04</internalNodes>
          <leafValues>
            -5.6795877218246460e-01 3.5108718276023865e-01</leafValues></_>
        <_>
          <internalNodes>
            0 -1 112 1.2206114828586578e-02</internalNodes>
          <leafValues>
            -2.0782265067100525e-01 9.9319285154342651e-01</leafValues></_>
        <_>
          <internalNodes>
            0 -1 61 -9.8373685032129288e-03</internalNodes>
          <leafValues>
            4.5797073841094971e-01 -4.0684568881988525e-01</leafValues></_>
        <_>
          <internalNodes>
            0 -1 260 6.6283000633120537e-03</internalNodes>
          <leafValues>
            -2.7066227793693542e-01 7.8304332494735718e-01</leafValues></_>
        <_>
          <internalNodes>
            0 -1 261 3.3362506655976176e-04</internalNodes>
          <leafValues>
            3.5477188229560852e-01 -6.1041080951690674e-01</leafValues></_></weakClassifiers></_>
    <!-- stage 8 -->
    <_>
      <maxWeakCount>11</maxWeakCount>
      <stageThreshold>-6.5455216169357300e-01</stageThreshold>
      <weakClassifiers>
        <_>
          <internalNodes>
            0 -1 9 4.7834560275077820e-01</internalNodes>
          <leafValues>
            8.6915886402130127e-01 -1.</leafValues></_>
        <_>
          <internalNodes>
            0 -1 126 -1.0437946766614914e-01</internalNodes>
          <leafValues>
            9.6165823936462402e-01 3.8808483630418777e-02</leafValues></_>
        <_>
          <internalNodes>
            0 -1 34 2.5840060785412788e-02</internalNodes>
          <leafValues>
            -2.1376402676105499e-01 7.8216826915740967e-01</leafValues></_>
        <_>
          <internalNodes>
            0 -1 172 2.3335693404078484e-02</internalNodes>
          <leafValues>
            -3.0414992570877075e-01 6.9619077444076538e-01</leafValues></_>
        <_>
          <internalNodes>
            0 -1 72 -4.3054157868027687e-04</internalNodes>
          <leafValues>
            -6.6213077306747437e-01 3.6247810721397400e-01</leafValues></_>
        <_>
          <internalNodes>
            0 -1 121 2.4650052189826965e-02</internalNodes>
          <leafValues>
            -4.2247223854064941e-01 6.4492034912109375e-01</leafValues></_>
        <_>
          <internalNodes>
            0 -1 255 9.1561622684821486e-04</internalNodes>
          <leafValues>
            4.0166953206062317e-01 -6.2794584035873413e-01</leafValues></_>
        <_>
          <internalNodes>
            0 -1 257 8.6854882538318634e-03</internalNodes>
          <leafValues>
            -2.7845788002014160e-01 8.8102895021438599e-01</leafValues></_>
        <_>
          <internalNodes>
            0 -1 192 1.5126106329262257e-02</internalNodes>
          <leafValues>
            -2.6817461848258972e-01 6.7389696836471558e-01</leafValues></_>
        <_>
          <internalNodes>
            0 -1 133 9.0895285829901695e-03</internalNodes>
          <leafValues>
            -1.9372783601284027e-01 9.8820108175277710e-01</leafValues></_>
        <_>
          <internalNodes>
            0 -1 270 1.1105490848422050e-02</internalNodes>
          <leafValues>
            3.7868821620941162e-01 -5.5514174699783325e-01</leafValues></_></weakClassifiers></_>
    <!-- stage 9 -->
    <_>
      <maxWeakCount>16</maxWeakCount>
      <stageThreshold>-1.6793902218341827e-01</stageThreshold>
      <weakClassifiers>
        <_>
          <internalNodes>
            0 -1 101 1.3237048685550690e-01</internalNodes>
          <leafValues>
            8.5185188055038452e-01 -1.</leafValues></_>
        <_>
          <internalNodes>
            0 -1 231 1.4957227744162083e-02</internalNodes>
          <leafValues>
            -2.0436113700270653e-02 7.4375671148300171e-01</leafValues></_>
        <_>
          <internalNodes>
            0 -1 10 5.7447347790002823e-03</internalNodes>
          <leafValues>
            -1.3554370403289795e-01 7.4413079023361206e-01</leafValues></_>
        <_>
          <internalNodes>
            0 -1 127 1.8418774008750916e-02</internalNodes>
          <leafValues>
            -1.1725256592035294e-01 8.9003491401672363e-01</leafValues></_>
        <_>
          <internalNodes>
            0 -1 156 2.4556447751820087e-03</internalNodes>
          <leafValues>
            2.3356854915618896e-01 -6.5743142366409302e-01</leafValues></_>
        <_>
          <internalNodes>
            0 -1 135 1.9755616784095764e-02</internalNodes>
          <leafValues>
            -3.0013260245323181e-01 4.5861250162124634e-01</leafValues></_>
        <_>
          <internalNodes>
            0 -1 75 -3.5802364349365234e-02</internalNodes>
          <leafValues>
            5.1791894435882568e-01 -2.8735244274139404e-01</leafValues></_>
        <_>
          <internalNodes>
            0 -1 167 -3.2597975223325193e-04</internalNodes>
          <leafValues>
            -5.5386924743652344e-01 3.2535386085510254e-01</leafValues></_>
        <_>
          <internalNodes>
            0 -1 246 -3.7776114186272025e-04</internalNodes>
          <leafValues>
            -5.3103035688400269e-01 2.9663684964179993e-01</leafValues></_>
        <_>
          <internalNodes>
            0 -1 245 2.9193507507443428e-03</internalNodes>
          <leafValues>
            -3.3405527472496033e-01 4.9941262602806091e-01</leafValues></_>
        <_>
          <internalNodes>
            0 -1 166 -1.8358863890171051e-02</internalNodes>
          <leafValues>
            5.4349350929260254e-01 -2.9174274206161499e-01</leafValues></_>
        <_>
          <internalNodes>
            0 -1 148 7.2321435436606407e-03</internalNodes>
          <leafValues>
            2.1973304450511932e-01 -6.0051035881042480e-01</leafValues></_>
        <_>
          <internalNodes>
            0 -1 43 -3.5936415661126375e-03</internalNodes>
          <leafValues>
            5.0608044862747192e-01 -2.8461045026779175e-01</leafValues></_>
        <_>
          <internalNodes>
            0 -1 90 9.5934197306632996e-03</internalNodes>
          <leafValues>
            -1.7981621623039246e-01 7.2665154933929443e-01</leafValues></_>
        <_>
          <internalNodes>
            0 -1 179 -2.8308426408329979e-05</internalNodes>
          <leafValues>
            6.1617690324783325e-01 -2.2676281630992889e-01</leafValues></_>
        <_>
          <internalNodes>
            0 -1 243 -9.1233651619404554e-04</internalNodes>
          <leafValues>
            -6.8192404508590698e-01 2.6425638794898987e-01</leafValues></_></weakClassifiers></_>
    <!-- stage 10 -->
    <_>
      <maxWeakCount>14</maxWeakCount>
      <stageThreshold>-2.4925017356872559e-01</stageThreshold>
      <weakClassifiers>
        <_>
          <internalNodes>
            0 -1 95 -1.2017732858657837e-01</internalNodes>
          <leafValues>
            -6.9999998807907104e-01 8.6181139945983887e-01</leafValues></_>
        <_>
          <internalNodes>
            0 -1 29 -1.3388645648956299e-01</internalNodes>
          <leafValues>
            -7.6761776208877563e-01 5.0473511219024658e-01</leafValues></_>
        <_>
          <internalNodes>
            0 -1 153 3.8667306303977966e-02</internalNodes>
          <leafValues>
            -2.2851453721523285e-01 7.2784209251403809e-01</leafValues></_>
        <_>
          <internalNodes>
            0 -1 249 2.5442606784054078e-05</internalNodes>
          <leafValues>
            -3.4928977489471436e-01 5.0130140781402588e-01</leafValues></_>
        <_>
          <internalNodes>
            0 -1 23 2.6065179554279894e-05</internalNodes>
          <leafValues>
            -3.2150653004646301e-01 5.8731806278228760e-01</leafValues></_>
        <_>
          <internalNodes>
            0 -1 254 9.1838538646697998e-03</internalNodes>
          <leafValues>
            -1.8439647555351257e-01 7.2655117511749268e-01</leafValues></_>
        <_>
          <internalNodes>
            0 -1 128 -5.5532310158014297e-02</internalNodes>
          <leafValues>
            6.9760012626647949e-01 -2.1789471805095673e-01</leafValues></_>
        <_>
          <internalNodes>
            0 -1 247 2.7071142540080473e-05</internalNodes>
          <leafValues>
            -2.2630824148654938e-01 5.7880562543869019e-01</leafValues></_>
        <_>
          <internalNodes>
            0 -1 262 -8.3251617616042495e-04</internalNodes>
          <leafValues>
            -6.8042552471160889e-01 2.3599383234977722e-01</leafValues></_>
        <_>
          <internalNodes>
            0 -1 0 -2.3286265786737204e-05</internalNodes>
          <leafValues>
            7.1271663904190063e-01 -2.5403109192848206e-01</leafValues></_>
        <_>
          <internalNodes>
            0 -1 42 1.5749506652355194e-02</internalNodes>
          <leafValues>
            2.9389527440071106e-01 -6.5215224027633667e-01</leafValues></_>
        <_>
          <internalNodes>
            0 -1 5 -2.4546305212425068e-05</internalNodes>
          <leafValues>
            7.4011754989624023e-01 -2.3645301163196564e-01</leafValues></_>
        <_>
          <internalNodes>
            0 -1 91 1.0254308290313929e-04</internalNodes>
          <leafValues>
            -3.0644977092742920e-01 4.9377471208572388e-01</leafValues></_>
        <_>
          <internalNodes>
            0 -1 21 -2.3530596081400290e-05</internalNodes>
          <leafValues>
            5.7039695978164673e-01 -2.8803923726081848e-01</leafValues></_></weakClassifiers></_>
    <!-- stage 11 -->
    <_>
      <maxWeakCount>14</maxWeakCount>
      <stageThreshold>1.1004430055618286e-01</stageThreshold>
      <weakClassifiers>
        <_>
          <internalNodes>
            0 -1 132 -3.7140733003616333e-01</internalNodes>
          <leafValues>
            -1. 8.5185188055038452e-01</leafValues></_>
        <_>
          <internalNodes>
            0 -1 99 -6.1552554368972778e-02</internalNodes>
          <leafValues>
            6.9307488203048706e-01 -1.6648642718791962e-01</leafValues></_>
        <_>
          <internalNodes>
            0 -1 33 3.6630989052355289e-03</internalNodes>
          <leafValues>
            -1.8982382118701935e-01 5.9982383251190186e-01</leafValues></_>
        <_>
          <internalNodes>
            0 -1 208 2.9724958949373104e-05</internalNodes>
          <leafValues>
            -3.4552174806594849e-01 4.3097305297851562e-01</leafValues></_>
        <_>
          <internalNodes>
            0 -1 155 -9.4442469999194145e-03</internalNodes>
          <leafValues>
            7.9361093044281006e-01 -2.3074921965599060e-01</leafValues></_>
        <_>
          <internalNodes>
            0 -1 27 -1.6297635436058044e-01</internalNodes>
          <leafValues>
            -8.7622916698455811e-01 2.2279435396194458e-01</leafValues></_>
        <_>
          <internalNodes>
            0 -1 107 3.4719966351985931e-02</internalNodes>
          <leafValues>
            -3.8499003648757935e-01 4.3881726264953613e-01</leafValues></_>
        <_>
          <internalNodes>
            0 -1 198 -6.1992049450054765e-04</internalNodes>
          <leafValues>
            -5.6399852037429810e-01 2.9252043366432190e-01</leafValues></_>
        <_>
          <internalNodes>
            0 -1 73 -7.1814455091953278e-02</internalNodes>
          <leafValues>
            5.2875995635986328e-01 -3.2433059811592102e-01</leafValues></_>
        <_>
          <internalNodes>
            0 -1 85 -1.1051606852561235e-03</internalNodes>
          <leafValues>
            -6.1446017026901245e-01 2.3699623346328735e-01</leafValues></_>
        <_>
          <internalNodes>
            0 -1 77 2.2223932668566704e-02</internalNodes>
          <leafValues>
            -3.1255638599395752e-01 5.0855708122253418e-01</leafValues></_>
        <_>
          <internalNodes>
            0 -1 183 -1.9549196586012840e-03</internalNodes>
          <leafValues>
            -6.1515170335769653e-01 2.6455530524253845e-01</leafValues></_>
        <_>
          <internalNodes>
            0 -1 267 -2.4798689992167056e-05</internalNodes>
          <leafValues>
            5.9044158458709717e-01 -2.4532200396060944e-01</leafValues></_>
        <_>
          <internalNodes>
            0 -1 131 9.8337130621075630e-03</internalNodes>
          <leafValues>
            -2.7983722090721130e-01 5.2481997013092041e-01</leafValues></_></weakClassifiers></_>
    <!-- stage 12 -->
    <_>
      <maxWeakCount>9</maxWeakCount>
      <stageThreshold>1.1507961153984070e-01</stageThreshold>
      <weakClassifiers>
        <_>
          <internalNodes>
            0 -1 55 1.3686521351337433e-01</internalNodes>
          <leafValues>
            8.8804554939270020e-01 -7.2972971200942993e-01</leafValues></_>
        <_>
          <internalNodes>
            0 -1 82 -9.7719524055719376e-03</internalNodes>
          <leafValues>
            8.0739516019821167e-01 -8.6386360228061676e-02</leafValues></_>
        <_>
          <internalNodes>
            0 -1 210 1.5755765140056610e-02</internalNodes>
          <leafValues>
            3.7465992569923401e-01 -7.2037667036056519e-01</leafValues></_>
        <_>
          <internalNodes>
            0 -1 62 -2.8940275311470032e-02</internalNodes>
          <leafValues>
            7.3706561326980591e-01 -2.5036835670471191e-01</leafValues></_>
        <_>
          <internalNodes>
            0 -1 220 -5.4470240138471127e-04</internalNodes>
          <leafValues>
            -4.9227190017700195e-01 3.7894737720489502e-01</leafValues></_>
        <_>
          <internalNodes>
            0 -1 108 -3.8801230490207672e-02</internalNodes>
          <leafValues>
            9.3781912326812744e-01 -2.4096733331680298e-01</leafValues></_>
        <_>
          <internalNodes>
            0 -1 60 2.3473031818866730e-02</internalNodes>
          <leafValues>
            2.9093721508979797e-01 -8.7735778093338013e-01</leafValues></_>
        <_>
          <internalNodes>
            0 -1 67 9.7904279828071594e-02</internalNodes>
          <leafValues>
            -2.2361892461776733e-01 8.8859355449676514e-01</leafValues></_>
        <_>
          <internalNodes>
            0 -1 224 1.4935271814465523e-02</internalNodes>
          <leafValues>
            2.9710587859153748e-01 -7.4165600538253784e-01</leafValues></_></weakClassifiers></_>
    <!-- stage 13 -->
    <_>
      <maxWeakCount>19</maxWeakCount>
      <stageThreshold>-1.0452273488044739e-01</stageThreshold>
      <weakClassifiers>
        <_>
          <internalNodes>
            0 -1 25 -1.2226977944374084e-01</internalNodes>
          <leafValues>
            -6.8000000715255737e-01 8.6866790056228638e-01</leafValues></_>
        <_>
          <internalNodes>
            0 -1 44 -3.8829624652862549e-02</internalNodes>
          <leafValues>
            8.8450616598129272e-01 4.0349721908569336e-02</leafValues></_>
        <_>
          <internalNodes>
            0 -1 126 -9.9813483655452728e-02</internalNodes>
          <leafValues>
            6.9176346063613892e-01 -1.6639564931392670e-01</leafValues></_>
        <_>
          <internalNodes>
            0 -1 229 3.8432952715083957e-04</internalNodes>
          <leafValues>
            -3.7033155560493469e-01 4.3844383955001831e-01</leafValues></_>
        <_>
          <internalNodes>
            0 -1 46 -7.4512129649519920e-03</internalNodes>
          <leafValues>
            -4.6753087639808655e-01 2.9966089129447937e-01</leafValues></_>
        <_>
          <internalNodes>
            0 -1 157 -6.0651137027889490e-04</internalNodes>
          <leafValues>
            -5.1139730215072632e-01 2.8911799192428589e-01</leafValues></_>
        <_>
          <internalNodes>
            0 -1 180 -9.1235470026731491e-03</internalNodes>
          <leafValues>
            -5.2353876829147339e-01 3.4099024534225464e-01</leafValues></_>
        <_>
          <internalNodes>
            0 -1 74 3.5025484976358712e-05</internalNodes>
          <leafValues>
            -4.2476266622543335e-01 3.7667506933212280e-01</leafValues></_>
        <_>
          <internalNodes>
            0 -1 268 5.5030384100973606e-03</internalNodes>
          <leafValues>
            2.3269553482532501e-01 -6.9022828340530396e-01</leafValues></_>
        <_>
          <internalNodes>
            0 -1 123 -9.2194380704313517e-04</internalNodes>
          <leafValues>
            -5.2099001407623291e-01 2.9547327756881714e-01</leafValues></_>
        <_>
          <internalNodes>
            0 -1 143 -3.9597667637281120e-05</internalNodes>
          <leafValues>
            5.8293902873992920e-01 -3.3346796035766602e-01</leafValues></_>
        <_>
          <internalNodes>
            0 -1 228 -5.5834441445767879e-04</internalNodes>
          <leafValues>
            -5.3929257392883301e-01 3.1945055723190308e-01</leafValues></_>
        <_>
          <internalNodes>
            0 -1 226 2.2971011276240461e-05</internalNodes>
          <leafValues>
            -3.0861872434616089e-01 4.8284816741943359e-01</leafValues></_>
        <_>
          <internalNodes>
            0 -1 125 5.8448184281587601e-03</internalNodes>
          <leafValues>
            3.1550437211990356e-01 -5.1354289054870605e-01</leafValues></_>
        <_>
          <internalNodes>
            0 -1 175 -1.6805634368211031e-03</internalNodes>
          <leafValues>
            -5.5049532651901245e-01 2.8395903110504150e-01</leafValues></_>
        <_>
          <internalNodes>
            0 -1 110 5.5377967655658722e-02</internalNodes>
          <leafValues>
            -3.1430783867835999e-01 5.5491048097610474e-01</leafValues></_>
        <_>
          <internalNodes>
            0 -1 26 -2.4486244001309387e-05</internalNodes>
          <leafValues>
            5.9241479635238647e-01 -2.4999704957008362e-01</leafValues></_>
        <_>
          <internalNodes>
            0 -1 56 8.8835414499044418e-03</internalNodes>
          <leafValues>
            2.6859351992607117e-01 -6.1186069250106812e-01</leafValues></_>
        <_>
          <internalNodes>
            0 -1 36 -8.6555507732555270e-04</internalNodes>
          <leafValues>
            -5.2730005979537964e-01 3.0558806657791138e-01</leafValues></_></weakClassifiers></_>
    <!-- stage 14 -->
    <_>
      <maxWeakCount>22</maxWeakCount>
      <stageThreshold>-1.1531728506088257e-01</stageThreshold>
      <weakClassifiers>
        <_>
          <internalNodes>
            0 -1 14 -1.0479965806007385e-01</internalNodes>
          <leafValues>
            -1. 8.5356813669204712e-01</leafValues></_>
        <_>
          <internalNodes>
            0 -1 84 5.4257269948720932e-03</internalNodes>
          <leafValues>
            6.4410507678985596e-01 -1.6688822209835052e-01</leafValues></_>
        <_>
          <internalNodes>
            0 -1 115 4.5896694064140320e-02</internalNodes>
          <leafValues>
            -2.6600918173789978e-01 5.1797896623611450e-01</leafValues></_>
        <_>
          <internalNodes>
            0 -1 217 3.7384059280157089e-02</internalNodes>
          <leafValues>
            2.0412234961986542e-01 -7.0154905319213867e-01</leafValues></_>
        <_>
          <internalNodes>
            0 -1 98 7.9426146112382412e-04</internalNodes>
          <leafValues>
            3.1853982806205750e-01 -4.1275644302368164e-01</leafValues></_>
        <_>
          <internalNodes>
            0 -1 171 2.8850875794887543e-02</internalNodes>
          <leafValues>
            -2.2379395365715027e-01 6.1271852254867554e-01</leafValues></_>
        <_>
          <internalNodes>
            0 -1 106 6.3733744900673628e-04</internalNodes>
          <leafValues>
            2.7692520618438721e-01 -4.6169948577880859e-01</leafValues></_>
        <_>
          <internalNodes>
            0 -1 273 7.0139141753315926e-03</internalNodes>
          <leafValues>
            1.9388173520565033e-01 -7.2328811883926392e-01</leafValues></_>
        <_>
          <internalNodes>
            0 -1 104 9.9029187113046646e-03</internalNodes>
          <leafValues>
            -2.1102711558341980e-01 6.1920410394668579e-01</leafValues></_>
        <_>
          <internalNodes>
            0 -1 272 -9.0253567323088646e-03</internalNodes>
          <leafValues>
            -5.9773212671279907e-01 2.4095945060253143e-01</leafValues></_>
        <_>
          <internalNodes>
            0 -1 242 -2.4583483536844142e-05</internalNodes>
          <leafValues>
            4.0091601014137268e-01 -3.2597446441650391e-01</leafValues></_>
        <_>
          <internalNodes>
            0 -1 130 -2.1525795455090702e-04</internalNodes>
          <leafValues>
            -3.1918254494667053e-01 4.2997843027114868e-01</leafValues></_>
        <_>
          <internalNodes>
            0 -1 212 1.0496338829398155e-02</internalNodes>
          <leafValues>
            -1.3089519739151001e-01 9.1639053821563721e-01</leafValues></_>
        <_>
          <internalNodes>
            0 -1 80 -6.5342582762241364e-02</internalNodes>
          <leafValues>
            -3.6390411853790283e-01 3.3868390321731567e-01</leafValues></_>
        <_>
          <internalNodes>
            0 -1 232 -2.4523452157154679e-04</internalNodes>
          <leafValues>
            -5.2826827764511108e-01 2.4246305227279663e-01</leafValues></_>
        <_>
          <internalNodes>
            0 -1 146 -1.5324016567319632e-04</internalNodes>
          <leafValues>
            3.6060702800750732e-01 -3.5363173484802246e-01</leafValues></_>
        <_>
          <internalNodes>
            0 -1 105 2.3042503744363785e-02</internalNodes>
          <leafValues>
            -1.2042824178934097e-01 1.</leafValues></_>
        <_>
          <internalNodes>
            0 -1 256 -3.5343817435204983e-03</internalNodes>
          <leafValues>
            -4.9613344669342041e-01 2.9306048154830933e-01</leafValues></_>
        <_>
          <internalNodes>
            0 -1 253 -3.2213767990469933e-03</internalNodes>
          <leafValues>
            -4.5219025015830994e-01 2.7840495109558105e-01</leafValues></_>
        <_>
          <internalNodes>
            0 -1 1 5.2556752052623779e-05</internalNodes>
          <leafValues>
            -4.2679992318153381e-01 3.3237200975418091e-01</leafValues></_>
        <_>
          <internalNodes>
            0 -1 2 1.6630399972200394e-02</internalNodes>
          <leafValues>
            1.7186638712882996e-01 -7.5962030887603760e-01</leafValues></_>
        <_>
          <internalNodes>
            0 -1 196 1.0660558007657528e-02</internalNodes>
          <leafValues>
            -1.7792074382305145e-01 7.7195787429809570e-01</leafValues></_></weakClassifiers></_>
    <!-- stage 15 -->
    <_>
      <maxWeakCount>17</maxWeakCount>
      <stageThreshold>-2.1080516278743744e-01</stageThreshold>
      <weakClassifiers>
        <_>
          <internalNodes>
            0 -1 6 -2.2111155092716217e-01</internalNodes>
          <leafValues>
            -1. 8.5013878345489502e-01</leafValues></_>
        <_>
          <internalNodes>
            0 -1 152 -1.8082736060023308e-02</internalNodes>
          <leafValues>
            9.5175278186798096e-01 1.2575073540210724e-01</leafValues></_>
        <_>
          <internalNodes>
            0 -1 266 -2.4704069801373407e-05</internalNodes>
          <leafValues>
            5.6501471996307373e-01 -2.4777434766292572e-01</leafValues></_>
        <_>
          <internalNodes>
            0 -1 244 -2.3430604414897971e-05</internalNodes>
          <leafValues>
            6.5240103006362915e-01 -2.8972727060317993e-01</leafValues></_>
        <_>
          <internalNodes>
            0 -1 151 1.3518113642930984e-02</internalNodes>
          <leafValues>
            -1.6998741030693054e-01 8.1541061401367188e-01</leafValues></_>
        <_>
          <internalNodes>
            0 -1 74 3.4495559521019459e-03</internalNodes>
          <leafValues>
            -2.0386920869350433e-01 6.3469183444976807e-01</leafValues></_>
        <_>
          <internalNodes>
            0 -1 94 2.2842679172754288e-02</internalNodes>
          <leafValues>
            -2.5980392098426819e-01 5.3709113597869873e-01</leafValues></_>
        <_>
          <internalNodes>
            0 -1 264 -2.3612630684510805e-05</internalNodes>
          <leafValues>
            5.9450066089630127e-01 -2.3992860317230225e-01</leafValues></_>
        <_>
          <internalNodes>
            0 -1 20 2.5373714379384182e-05</internalNodes>
          <leafValues>
            -3.1977137923240662e-01 4.4200831651687622e-01</leafValues></_>
        <_>
          <internalNodes>
            0 -1 17 -2.5305947929155082e-05</internalNodes>
          <leafValues>
            6.2777417898178101e-01 -2.4829083681106567e-01</leafValues></_>
        <_>
          <internalNodes>
            0 -1 35 -6.2604853883385658e-04</internalNodes>
          <leafValues>
            -6.6836905479431152e-01 2.3889006674289703e-01</leafValues></_>
        <_>
          <internalNodes>
            0 -1 122 2.6486628485145047e-05</internalNodes>
          <leafValues>
            -3.8061219453811646e-01 3.4785735607147217e-01</leafValues></_>
        <_>
          <internalNodes>
            0 -1 227 -5.4627167992293835e-04</internalNodes>
          <leafValues>
            -5.2830094099044800e-01 2.9371020197868347e-01</leafValues></_>
        <_>
          <internalNodes>
            0 -1 160 -6.2805889174342155e-03</internalNodes>
          <leafValues>
            8.1026279926300049e-01 -1.8781095743179321e-01</leafValues></_>
        <_>
          <internalNodes>
            0 -1 233 -2.6065179554279894e-05</internalNodes>
          <leafValues>
            5.2901887893676758e-01 -2.3614868521690369e-01</leafValues></_>
        <_>
          <internalNodes>
            0 -1 68 1.5005445107817650e-02</internalNodes>
          <leafValues>
            -1.1455082893371582e-01 9.8758500814437866e-01</leafValues></_>
        <_>
          <internalNodes>
            0 -1 271 1.0067308903671801e-04</internalNodes>
          <leafValues>
            -1.8159505724906921e-01 5.9683692455291748e-01</leafValues></_></weakClassifiers></_>
    <!-- stage 16 -->
    <_>
      <maxWeakCount>15</maxWeakCount>
      <stageThreshold>-9.7343318164348602e-02</stageThreshold>
      <weakClassifiers>
        <_>
          <internalNodes>
            0 -1 53 2.8436535596847534e-01</internalNodes>
          <leafValues>
            8.6355137825012207e-01 -7.1428573131561279e-01</leafValues></_>
        <_>
          <internalNodes>
            0 -1 225 -9.9380224943161011e-02</internalNodes>
          <leafValues>
            -6.3412743806838989e-01 5.5515730381011963e-01</leafValues></_>
        <_>
          <internalNodes>
            0 -1 168 -6.7783370614051819e-03</internalNodes>
          <leafValues>
            6.8522936105728149e-01 -2.0901225507259369e-01</leafValues></_>
        <_>
          <internalNodes>
            0 -1 164 2.4689963087439537e-02</internalNodes>
          <leafValues>
            -2.4090491235256195e-01 6.1181569099426270e-01</leafValues></_>
        <_>
          <internalNodes>
            0 -1 188 2.5713610739330761e-05</internalNodes>
          <leafValues>
            -3.0599960684776306e-01 6.1136680841445923e-01</leafValues></_>
        <_>
          <internalNodes>
            0 -1 87 -2.9611372156068683e-04</internalNodes>
          <leafValues>
            -5.8098840713500977e-01 2.9740181565284729e-01</leafValues></_>
        <_>
          <internalNodes>
            0 -1 263 1.3218370731920004e-03</internalNodes>
          <leafValues>
            2.4399803578853607e-01 -6.5116190910339355e-01</leafValues></_>
        <_>
          <internalNodes>
            0 -1 189 1.1939232237637043e-02</internalNodes>
          <leafValues>
            -2.1403996646404266e-01 8.1054085493087769e-01</leafValues></_>
        <_>
          <internalNodes>
            0 -1 8 -1.7462912946939468e-03</internalNodes>
          <leafValues>
            5.9193509817123413e-01 -2.5971356034278870e-01</leafValues></_>
        <_>
          <internalNodes>
            0 -1 88 -5.7176174595952034e-04</internalNodes>
          <leafValues>
            -5.7843649387359619e-01 2.7273324131965637e-01</leafValues></_>
        <_>
          <internalNodes>
            0 -1 22 -2.6167061150772497e-05</internalNodes>
          <leafValues>
            5.0396484136581421e-01 -3.8427904248237610e-01</leafValues></_>
        <_>
          <internalNodes>
            0 -1 207 1.3117035850882530e-02</internalNodes>
          <leafValues>
            -1.6737528145313263e-01 8.3217233419418335e-01</leafValues></_>
        <_>
          <internalNodes>
            0 -1 149 -4.4005241943523288e-04</internalNodes>
          <leafValues>
            -5.2407568693161011e-01 3.7478914856910706e-01</leafValues></_>
        <_>
          <internalNodes>
            0 -1 240 2.7618581952992827e-05</internalNodes>
          <leafValues>
            -3.4616488218307495e-01 5.4824072122573853e-01</leafValues></_>
        <_>
          <internalNodes>
            0 -1 104 6.8475883454084396e-03</internalNodes>
          <leafValues>
            -2.3538944125175476e-01 6.5406036376953125e-01</leafValues></_></weakClassifiers></_>
    <!-- stage 17 -->
    <_>
      <maxWeakCount>17</maxWeakCount>
      <stageThreshold>-7.2307594120502472e-02</stageThreshold>
      <weakClassifiers>
        <_>
          <internalNodes>
            0 -1 193 1.2096221745014191e-01</internalNodes>
          <leafValues>
            8.5013878345489502e-01 -1.</leafValues></_>
        <_>
          <internalNodes>
            0 -1 219 -1.2853994267061353e-03</internalNodes>
          <leafValues>
            -1.8550319969654083e-01 5.9538710117340088e-01</leafValues></_>
        <_>
          <internalNodes>
            0 -1 185 2.8000496968161315e-05</internalNodes>
          <leafValues>
            -2.1089205145835876e-01 6.9257247447967529e-01</leafValues></_>
        <_>
          <internalNodes>
            0 -1 154 2.4486244001309387e-05</internalNodes>
          <leafValues>
            -2.7926918864250183e-01 4.8611101508140564e-01</leafValues></_>
        <_>
          <internalNodes>
            0 -1 238 2.6094687200384215e-05</internalNodes>
          <leafValues>
            -3.6859849095344543e-01 4.3120542168617249e-01</leafValues></_>
        <_>
          <internalNodes>
            0 -1 269 -2.0041144452989101e-03</internalNodes>
          <leafValues>
            -5.4917615652084351e-01 2.8162065148353577e-01</leafValues></_>
        <_>
          <internalNodes>
            0 -1 11 8.8411296019330621e-05</internalNodes>
          <leafValues>
            -2.9907163977622986e-01 4.9684959650039673e-01</leafValues></_>
        <_>
          <internalNodes>
            0 -1 114 2.9322707632672973e-05</internalNodes>
          <leafValues>
            -3.1199994683265686e-01 4.8022001981735229e-01</leafValues></_>
        <_>
          <internalNodes>
            0 -1 252 2.7767817300627939e-05</internalNodes>
          <leafValues>
            -4.2369502782821655e-01 3.4195417165756226e-01</leafValues></_>
        <_>
          <internalNodes>
            0 -1 237 -5.5519943125545979e-03</internalNodes>
          <leafValues>
            -4.6991482377052307e-01 3.1051677465438843e-01</leafValues></_>
        <_>
          <internalNodes>
            0 -1 176 7.4885087087750435e-04</internalNodes>
          <leafValues>
            2.3491603136062622e-01 -6.7293399572372437e-01</leafValues></_>
        <_>
          <internalNodes>
            0 -1 52 2.3286265786737204e-05</internalNodes>
          <leafValues>
            -2.9335948824882507e-01 6.9500666856765747e-01</leafValues></_>
        <_>
          <internalNodes>
            0 -1 221 -8.7285600602626801e-04</internalNodes>
          <leafValues>
            -5.2993267774581909e-01 2.8416129946708679e-01</leafValues></_>
        <_>
          <internalNodes>
            0 -1 45 -2.2453163182944991e-05</internalNodes>
          <leafValues>
            5.1702582836151123e-01 -2.9655274748802185e-01</leafValues></_>
        <_>
          <internalNodes>
            0 -1 118 -7.6130017638206482e-02</internalNodes>
          <leafValues>
            -6.7338645458221436e-01 2.3692844808101654e-01</leafValues></_>
        <_>
          <internalNodes>
            0 -1 59 -4.1406889067729935e-05</internalNodes>
          <leafValues>
            3.5075572133064270e-01 -5.0986009836196899e-01</leafValues></_>
        <_>
          <internalNodes>
            0 -1 133 -1.3975924812257290e-03</internalNodes>
          <leafValues>
            -4.9910447001457214e-01 3.1922197341918945e-01</leafValues></_></weakClassifiers></_>
    <!-- stage 18 -->
    <_>
      <maxWeakCount>19</maxWeakCount>
      <stageThreshold>-3.3857583999633789e-01</stageThreshold>
      <weakClassifiers>
        <_>
          <internalNodes>
            0 -1 13 -4.7463667392730713e-01</internalNodes>
          <leafValues>
            -1. 8.5873603820800781e-01</leafValues></_>
        <_>
          <internalNodes>
            0 -1 203 5.9888190589845181e-03</internalNodes>
          <leafValues>
            6.6037863492965698e-01 -1.6674207150936127e-01</leafValues></_>
        <_>
          <internalNodes>
            0 -1 40 3.9994800317799672e-05</internalNodes>
          <leafValues>
            -2.9923513531684875e-01 4.7516861557960510e-01</leafValues></_>
        <_>
          <internalNodes>
            0 -1 19 1.6057483851909637e-02</internalNodes>
          <leafValues>
            2.1665728092193604e-01 -7.1188962459564209e-01</leafValues></_>
        <_>
          <internalNodes>
            0 -1 187 2.2309444844722748e-02</internalNodes>
          <leafValues>
            -2.8155770897865295e-01 5.7705044746398926e-01</leafValues></_>
        <_>
          <internalNodes>
            0 -1 114 5.6137656792998314e-03</internalNodes>
          <leafValues>
            -2.2406287491321564e-01 7.5016731023788452e-01</leafValues></_>
        <_>
          <internalNodes>
            0 -1 38 4.9235592596232891e-03</internalNodes>
          <leafValues>
            2.6539629697799683e-01 -6.1522716283798218e-01</leafValues></_>
        <_>
          <internalNodes>
            0 -1 199 1.1716699227690697e-02</internalNodes>
          <leafValues>
            -1.8435344099998474e-01 8.7584745883941650e-01</leafValues></_>
        <_>
          <internalNodes>
            0 -1 173 8.9687630534172058e-03</internalNodes>
          <leafValues>
            -7.5075209140777588e-02 1.</leafValues></_>
        <_>
          <internalNodes>
            0 -1 182 2.8639815354836173e-05</internalNodes>
          <leafValues>
            -3.7506890296936035e-01 3.6698561906814575e-01</leafValues></_>
        <_>
          <internalNodes>
            0 -1 100 -4.3846605694852769e-04</internalNodes>
          <leafValues>
            -4.8273378610610962e-01 2.9063868522644043e-01</leafValues></_>
        <_>
          <internalNodes>
            0 -1 200 3.0664848163723946e-03</internalNodes>
          <leafValues>
            -1.8569768965244293e-01 8.0440086126327515e-01</leafValues></_>
        <_>
          <internalNodes>
            0 -1 65 -1.2238924950361252e-01</internalNodes>
          <leafValues>
            -6.4443385601043701e-01 2.4917834997177124e-01</leafValues></_>
        <_>
          <internalNodes>
            0 -1 209 1.1879863217473030e-02</internalNodes>
          <leafValues>
            -1.9953109323978424e-01 8.1565779447555542e-01</leafValues></_>
        <_>
          <internalNodes>
            0 -1 12 2.6141309738159180e-01</internalNodes>
          <leafValues>
            1.9463090598583221e-01 -8.4270882606506348e-01</leafValues></_>
        <_>
          <internalNodes>
            0 -1 218 5.0387973897159100e-04</internalNodes>
          <leafValues>
            2.4702458083629608e-01 -5.0420296192169189e-01</leafValues></_>
        <_>
          <internalNodes>
            0 -1 250 -6.0538249090313911e-03</internalNodes>
          <leafValues>
            -5.2137279510498047e-01 2.8600633144378662e-01</leafValues></_>
        <_>
          <internalNodes>
            0 -1 64 -1.0506261140108109e-02</internalNodes>
          <leafValues>
            8.3052021265029907e-01 -1.7616634070873260e-01</leafValues></_>
        <_>
          <internalNodes>
            0 -1 215 -7.0176704321056604e-04</internalNodes>
          <leafValues>
            -6.9696325063705444e-01 2.2485753893852234e-01</leafValues></_></weakClassifiers></_>
    <!-- stage 19 -->
    <_>
      <maxWeakCount>16</maxWeakCount>
      <stageThreshold>-1.5490664541721344e-01</stageThreshold>
      <weakClassifiers>
        <_>
          <internalNodes>
            0 -1 120 3.5351023077964783e-02</internalNodes>
          <leafValues>
            8.5647714138031006e-01 -5.5555558204650879e-01</leafValues></_>
        <_>
          <internalNodes>
            0 -1 147 -5.0191219896078110e-02</internalNodes>
          <leafValues>
            7.6782280206680298e-01 -2.6507962495088577e-02</leafValues></_>
        <_>
          <internalNodes>
            0 -1 49 -1.3184473209548742e-04</internalNodes>
          <leafValues>
            -4.1931799054145813e-01 3.8695052266120911e-01</leafValues></_>
        <_>
          <internalNodes>
            0 -1 15 9.8252845928072929e-03</internalNodes>
          <leafValues>
            -1.7691265046596527e-01 7.7320021390914917e-01</leafValues></_>
        <_>
          <internalNodes>
            0 -1 239 2.2958232089877129e-02</internalNodes>
          <leafValues>
            -2.7362060546875000e-01 5.2201360464096069e-01</leafValues></_>
        <_>
          <internalNodes>
            0 -1 32 2.9538005590438843e-02</internalNodes>
          <leafValues>
            -2.3505100607872009e-01 5.9866583347320557e-01</leafValues></_>
        <_>
          <internalNodes>
            0 -1 236 -3.3246079692617059e-04</internalNodes>
          <leafValues>
            -4.2218849062919617e-01 3.3542796969413757e-01</leafValues></_>
        <_>
          <internalNodes>
            0 -1 117 8.8510155910626054e-04</internalNodes>
          <leafValues>
            -1.9265048205852509e-01 7.3274534940719604e-01</leafValues></_>
        <_>
          <internalNodes>
            0 -1 103 1.9742248696275055e-04</internalNodes>
          <leafValues>
            2.2755613923072815e-01 -7.1921461820602417e-01</leafValues></_>
        <_>
          <internalNodes>
            0 -1 87 -3.0259223422035575e-04</internalNodes>
          <leafValues>
            -5.6582319736480713e-01 2.1988472342491150e-01</leafValues></_>
        <_>
          <internalNodes>
            0 -1 16 9.8801021522376686e-05</internalNodes>
          <leafValues>
            -3.0524581670761108e-01 4.7540336847305298e-01</leafValues></_>
        <_>
          <internalNodes>
            0 -1 201 2.5175528600811958e-02</internalNodes>
          <leafValues>
            -2.3678782582283020e-01 5.7506269216537476e-01</leafValues></_>
        <_>
          <internalNodes>
            0 -1 81 -1.3542459905147552e-01</internalNodes>
          <leafValues>
            7.4748921394348145e-01 -1.6002932190895081e-01</leafValues></_>
        <_>
          <internalNodes>
            0 -1 70 -5.7032937183976173e-04</internalNodes>
          <leafValues>
            -6.6851580142974854e-01 2.6583287119865417e-01</leafValues></_>
        <_>
          <internalNodes>
            0 -1 69 1.2976725702174008e-04</internalNodes>
          <leafValues>
            2.7737778425216675e-01 -5.2085405588150024e-01</leafValues></_>
        <_>
          <internalNodes>
            0 -1 116 1.4661152847111225e-02</internalNodes>
          <leafValues>
            -1.8325947225093842e-01 8.0008023977279663e-01</leafValues></_></weakClassifiers></_></stages>
  <features>
    <_>
      <rects>
        <_>
          0 0 2 2 -1.</_>
        <_>
          0 0 1 1 2.</_>
        <_>
          1 1 1 1 2.</_></rects>
      <tilted>0</tilted></_>
    <_>
      <rects>
        <_>
          0 0 3 9 -1.</_>
        <_>
          1 3 1 3 9.</_></rects>
      <tilted>0</tilted></_>
    <_>
      <rects>
        <_>
          0 0 6 2 -1.</_>
        <_>
          0 1 6 1 2.</_></rects>
      <tilted>0</tilted></_>
    <_>
      <rects>
        <_>
          0 1 20 11 -1.</_>
        <_>
          5 1 10 11 2.</_></rects>
      <tilted>0</tilted></_>
    <_>
      <rects>
        <_>
          0 1 12 12 -1.</_>
        <_>
          0 7 12 6 2.</_></rects>
      <tilted>0</tilted></_>
    <_>
      <rects>
        <_>
          0 2 2 2 -1.</_>
        <_>
          0 2 1 1 2.</_>
        <_>
          1 3 1 1 2.</_></rects>
      <tilted>0</tilted></_>
    <_>
      <rects>
        <_>
          0 2 8 9 -1.</_>
        <_>
          4 2 4 9 2.</_></rects>
      <tilted>0</tilted></_>
    <_>
      <rects>
        <_>
          0 2 11 12 -1.</_>
        <_>
          0 8 11 6 2.</_></rects>
      <tilted>0</tilted></_>
    <_>
      <rects>
        <_>
          0 2 15 2 -1.</_>
        <_>
          0 3 15 1 2.</_></rects>
      <tilted>0</tilted></_>
    <_>
      <rects>
        <_>
          0 2 16 12 -1.</_>
        <_>
          0 6 16 4 3.</_></rects>
      <tilted>0</tilted></_>
    <_>
      <rects>
        <_>
          0 3 3 7 -1.</_>
        <_>
          1 3 1 7 3.</_></rects>
      <tilted>0</tilted></_>
    <_>
      <rects>
        <_>
          0 3 4 3 -1.</_>
        <_>
          0 4 4 1 3.</_></rects>
      <tilted>0</tilted></_>
    <_>
      <rects>
        <_>
          0 3 20 9 -1.</_>
        <_>
          10 3 10 9 2.</_></rects>
      <tilted>0</tilted></_>
    <_>
      <rects>
        <_>
          0 4 18 10 -1.</_>
        <_>
          9 4 9 10 2.</_></rects>
      <tilted>0</tilted></_>
    <_>
      <rects>
        <_>
          0 4 20 2 -1.</_>
        <_>
          0 5 20 1 2.</_></rects>
      <tilted>0</tilted></_>
    <_>
      <rects>
        <_>
          0 5 8 3 -1.</_>
        <_>
          0 6 8 1 3.</_></rects>
      <tilted>0</tilted></_>
    <_>
      <rects>
        <_>
          0 6 1 3 -1.</_>
        <_>
          0 7 1 1 3.</_></rects>
      <tilted>0</tilted></_>
    <_>
      <rects>
        <_>
          0 6 2 2 -1.</_>
        <_>
          0 6 1 1 2.</_>
        <_>
          1 7 1 1 2.</_></rects>
      <tilted>0</tilted></_>
    <_>
      <rects>
        <_>
          0 6 3 8 -1.</_>
        <_>
          0 8 3 4 2.</_></rects>
      <tilted>0</tilted></_>
    <_>
      <rects>
        <_>
          0 6 8 1 -1.</_>
        <_>
          4 6 4 1 2.</_></rects>
      <tilted>0</tilted></_>
    <_>
      <rects>
        <_>
          0 7 3 3 -1.</_>
        <_>
          1 8 1 1 9.</_></rects>
      <tilted>0</tilted></_>
    <_>
      <rects>
        <_>
          0 8 2 2 -1.</_>
        <_>
          0 8 1 1 2.</_>
        <_>
          1 9 1 1 2.</_></rects>
      <tilted>0</tilted></_>
    <_>
      <rects>
        <_>
          0 8 2 6 -1.</_>
        <_>
          0 8 1 3 2.</_>
        <_>
          1 11 1 3 2.</_></rects>
      <tilted>0</tilted></_>
    <_>
      <rects>
        <_>
          0 9 3 1 -1.</_>
        <_>
          1 9 1 1 3.</_></rects>
      <tilted>0</tilted></_>
    <_>
      <rects>
        <_>
          0 9 2 2 -1.</_>
        <_>
          0 9 1 1 2.</_>
        <_>
          1 10 1 1 2.</_></rects>
      <tilted>0</tilted></_>
    <_>
      <rects>
        <_>
          0 9 20 4 -1.</_>
        <_>
          0 10 20 2 2.</_></rects>
      <tilted>0</tilted></_>
    <_>
      <rects>
        <_>
          1 0 2 4 -1.</_>
        <_>
          1 0 1 2 2.</_>
        <_>
          2 2 1 2 2.</_></rects>
      <tilted>0</tilted></_>
    <_>
      <rects>
        <_>
          1 0 7 12 -1.</_>
        <_>
          1 6 7 6 2.</_></rects>
      <tilted>0</tilted></_>
    <_>
      <rects>
        <_>
          1 1 16 3 -1.</_>
        <_>
          1 2 16 1 3.</_></rects>
      <tilted>0</tilted></_>
    <_>
      <rects>
        <_>
          1 2 10 12 -1.</_>
        <_>
          1 2 5 6 2.</_>
        <_>
          6 8 5 6 2.</_></rects>
      <tilted>0</tilted></_>
    <_>
      <rects>
        <_>
          1 2 11 3 -1.</_>
        <_>
          1 3 11 1 3.</_></rects>
      <tilted>0</tilted></_>
    <_>
      <rects>
        <_>
          1 3 16 6 -1.</_>
        <_>
          9 3 8 6 2.</_></rects>
      <tilted>0</tilted></_>
    <_>
      <rects>
        <_>
          1 4 15 3 -1.</_>
        <_>
          6 5 5 1 9.</_></rects>
      <tilted>0</tilted></_>
    <_>
      <rects>
        <_>
          1 4 18 2 -1.</_>
        <_>
          7 4 6 2 3.</_></rects>
      <tilted>0</tilted></_>
    <_>
      <rects>
        <_>
          1 6 9 3 -1.</_>
        <_>
          4 7 3 1 9.</_></rects>
      <tilted>0</tilted></_>
    <_>
      <rects>
        <_>
          1 8 1 2 -1.</_>
        <_>
          1 9 1 1 2.</_></rects>
      <tilted>0</tilted></_>
    <_>
      <rects>
        <_>
          1 8 3 3 -1.</_>
        <_>
          1 9 3 1 3.</_></rects>
      <tilted>0</tilted></_>
    <_>
      <rects>
        <_>
          1 9 18 3 -1.</_>
        <_>
          1 10 18 1 3.</_></rects>
      <tilted>0</tilted></_>
    <_>
      <rects>
        <_>
          1 10 2 1 -1.</_>
        <_>
          1 10 1 1 2.</_></rects>
      <tilted>1</tilted></_>
    <_>
      <rects>
        <_>
          1 10 14 3 -1.</_>
        <_>
          1 11 14 1 3.</_></rects>
      <tilted>0</tilted></_>
    <_>
      <rects>
        <_>
          1 11 15 3 -1.</_>
        <_>
          6 12 5 1 9.</_></rects>
      <tilted>0</tilted></_>
    <_>
      <rects>
        <_>
          2 0 9 1 -1.</_>
        <_>
          5 0 3 1 3.</_></rects>
      <tilted>0</tilted></_>
    <_>
      <rects>
        <_>
          2 0 6 2 -1.</_>
        <_>
          5 0 3 2 2.</_></rects>
      <tilted>0</tilted></_>
    <_>
      <rects>
        <_>
          2 0 10 4 -1.</_>
        <_>
          2 0 5 2 2.</_>
        <_>
          7 2 5 2 2.</_></rects>
      <tilted>0</tilted></_>
    <_>
      <rects>
        <_>
          2 0 16 8 -1.</_>
        <_>
          2 4 16 4 2.</_></rects>
      <tilted>0</tilted></_>
    <_>
      <rects>
        <_>
          2 1 2 9 -1.</_>
        <_>
          3 1 1 9 2.</_></rects>
      <tilted>0</tilted></_>
    <_>
      <rects>
        <_>
          2 1 9 3 -1.</_>
        <_>
          5 2 3 1 9.</_></rects>
      <tilted>0</tilted></_>
    <_>
      <rects>
        <_>
          2 5 12 1 -1.</_>
        <_>
          5 5 6 1 2.</_></rects>
      <tilted>0</tilted></_>
    <_>
      <rects>
        <_>
          2 6 2 1 -1.</_>
        <_>
          3 6 1 1 2.</_></rects>
      <tilted>0</tilted></_>
    <_>
      <rects>
        <_>
          2 8 2 1 -1.</_>
        <_>
          3 8 1 1 2.</_></rects>
      <tilted>0</tilted></_>
    <_>
      <rects>
        <_>
          2 11 2 3 -1.</_>
        <_>
          2 12 2 1 3.</_></rects>
      <tilted>0</tilted></_>
    <_>
      <rects>
        <_>
          2 11 10 3 -1.</_>
        <_>
          2 12 10 1 3.</_></rects>
      <tilted>0</tilted></_>
    <_>
      <rects>
        <_>
          3 0 4 2 -1.</_>
        <_>
          3 0 2 1 2.</_>
        <_>
          5 1 2 1 2.</_></rects>
      <tilted>0</tilted></_>
    <_>
      <rects>
        <_>
          3 0 16 6 -1.</_>
        <_>
          11 0 8 6 2.</_></rects>
      <tilted>0</tilted></_>
    <_>
      <rects>
        <_>
          3 0 9 12 -1.</_>
        <_>
          3 6 9 6 2.</_></rects>
      <tilted>0</tilted></_>
    <_>
      <rects>
        <_>
          3 1 17 3 -1.</_>
        <_>
          3 2 17 1 3.</_></rects>
      <tilted>0</tilted></_>
    <_>
      <rects>
        <_>
          3 3 2 4 -1.</_>
        <_>
          3 5 2 2 2.</_></rects>
      <tilted>0</tilted></_>
    <_>
      <rects>
        <_>
          3 3 12 9 -1.</_>
        <_>
          9 3 6 9 2.</_></rects>
      <tilted>0</tilted></_>
    <_>
      <rects>
        <_>
          3 5 3 3 -1.</_>
        <_>
          4 6 1 1 9.</_></rects>
      <tilted>0</tilted></_>
    <_>
      <rects>
        <_>
          3 5 6 4 -1.</_>
        <_>
          6 5 3 4 2.</_></rects>
      <tilted>0</tilted></_>
    <_>
      <rects>
        <_>
          3 5 16 2 -1.</_>
        <_>
          3 6 16 1 2.</_></rects>
      <tilted>0</tilted></_>
    <_>
      <rects>
        <_>
          3 6 16 1 -1.</_>
        <_>
          7 6 8 1 2.</_></rects>
      <tilted>0</tilted></_>
    <_>
      <rects>
        <_>
          3 7 12 1 -1.</_>
        <_>
          7 7 4 1 3.</_></rects>
      <tilted>0</tilted></_>
    <_>
      <rects>
        <_>
          3 8 1 2 -1.</_>
        <_>
          3 9 1 1 2.</_></rects>
      <tilted>0</tilted></_>
    <_>
      <rects>
        <_>
          3 9 10 4 -1.</_>
        <_>
          3 10 10 2 2.</_></rects>
      <tilted>0</tilted></_>
    <_>
      <rects>
        <_>
          4 0 14 9 -1.</_>
        <_>
          11 0 7 9 2.</_></rects>
      <tilted>0</tilted></_>
    <_>
      <rects>
        <_>
          4 0 15 14 -1.</_>
        <_>
          4 7 15 7 2.</_></rects>
      <tilted>0</tilted></_>
    <_>
      <rects>
        <_>
          4 1 11 12 -1.</_>
        <_>
          4 4 11 6 2.</_></rects>
      <tilted>0</tilted></_>
    <_>
      <rects>
        <_>
          4 2 3 3 -1.</_>
        <_>
          5 3 1 1 9.</_></rects>
      <tilted>0</tilted></_>
    <_>
      <rects>
        <_>
          4 3 1 2 -1.</_>
        <_>
          4 3 1 1 2.</_></rects>
      <tilted>1</tilted></_>
    <_>
      <rects>
        <_>
          4 4 3 3 -1.</_>
        <_>
          5 5 1 1 9.</_></rects>
      <tilted>0</tilted></_>
    <_>
      <rects>
        <_>
          4 4 12 6 -1.</_>
        <_>
          8 6 4 2 9.</_></rects>
      <tilted>0</tilted></_>
    <_>
      <rects>
        <_>
          4 5 3 3 -1.</_>
        <_>
          5 6 1 1 9.</_></rects>
      <tilted>0</tilted></_>
    <_>
      <rects>
        <_>
          4 5 12 3 -1.</_>
        <_>
          8 6 4 1 9.</_></rects>
      <tilted>0</tilted></_>
    <_>
      <rects>
        <_>
          4 6 6 1 -1.</_>
        <_>
          6 6 2 1 3.</_></rects>
      <tilted>0</tilted></_>
    <_>
      <rects>
        <_>
          4 6 8 3 -1.</_>
        <_>
          8 6 4 3 2.</_></rects>
      <tilted>0</tilted></_>
    <_>
      <rects>
        <_>
          4 7 6 3 -1.</_>
        <_>
          6 8 2 1 9.</_></rects>
      <tilted>0</tilted></_>
    <_>
      <rects>
        <_>
          4 7 8 6 -1.</_>
        <_>
          4 10 8 3 2.</_></rects>
      <tilted>0</tilted></_>
    <_>
      <rects>
        <_>
          4 8 3 3 -1.</_>
        <_>
          5 9 1 1 9.</_></rects>
      <tilted>0</tilted></_>
    <_>
      <rects>
        <_>
          4 11 13 3 -1.</_>
        <_>
          4 12 13 1 3.</_></rects>
      <tilted>0</tilted></_>
    <_>
      <rects>
        <_>
          5 0 9 12 -1.</_>
        <_>
          8 0 3 12 3.</_></rects>
      <tilted>0</tilted></_>
    <_>
      <rects>
        <_>
          5 1 7 12 -1.</_>
        <_>
          5 5 7 4 3.</_></rects>
      <tilted>0</tilted></_>
    <_>
      <rects>
        <_>
          5 2 9 1 -1.</_>
        <_>
          8 5 3 1 3.</_></rects>
      <tilted>1</tilted></_>
    <_>
      <rects>
        <_>
          5 3 9 9 -1.</_>
        <_>
          8 6 3 3 9.</_></rects>
      <tilted>0</tilted></_>
    <_>
      <rects>
        <_>
          5 4 1 4 -1.</_>
        <_>
          5 4 1 2 2.</_></rects>
      <tilted>1</tilted></_>
    <_>
      <rects>
        <_>
          5 4 2 2 -1.</_>
        <_>
          5 5 2 1 2.</_></rects>
      <tilted>0</tilted></_>
    <_>
      <rects>
        <_>
          5 4 9 6 -1.</_>
        <_>
          8 6 3 2 9.</_></rects>
      <tilted>0</tilted></_>
    <_>
      <rects>
        <_>
          5 5 2 1 -1.</_>
        <_>
          6 5 1 1 2.</_></rects>
      <tilted>0</tilted></_>
    <_>
      <rects>
        <_>
          5 5 1 2 -1.</_>
        <_>
          5 5 1 1 2.</_></rects>
      <tilted>1</tilted></_>
    <_>
      <rects>
        <_>
          5 6 1 2 -1.</_>
        <_>
          5 6 1 1 2.</_></rects>
      <tilted>1</tilted></_>
    <_>
      <rects>
        <_>
          5 7 3 3 -1.</_>
        <_>
          6 8 1 1 9.</_></rects>
      <tilted>0</tilted></_>
    <_>
      <rects>
        <_>
          5 7 4 5 -1.</_>
        <_>
          6 7 2 5 2.</_></rects>
      <tilted>0</tilted></_>
    <_>
      <rects>
        <_>
          5 7 8 1 -1.</_>
        <_>
          7 7 4 1 2.</_></rects>
      <tilted>0</tilted></_>
    <_>
      <rects>
        <_>
          5 7 4 2 -1.</_>
        <_>
          7 7 2 2 2.</_></rects>
      <tilted>0</tilted></_>
    <_>
      <rects>
        <_>
          5 8 12 3 -1.</_>
        <_>
          9 9 4 1 9.</_></rects>
      <tilted>0</tilted></_>
    <_>
      <rects>
        <_>
          6 0 10 3 -1.</_>
        <_>
          6 0 5 3 2.</_></rects>
      <tilted>1</tilted></_>
    <_>
      <rects>
        <_>
          6 1 3 9 -1.</_>
        <_>
          7 1 1 9 3.</_></rects>
      <tilted>0</tilted></_>
    <_>
      <rects>
        <_>
          6 1 9 2 -1.</_>
        <_>
          9 4 3 2 3.</_></rects>
      <tilted>1</tilted></_>
    <_>
      <rects>
        <_>
          6 2 1 4 -1.</_>
        <_>
          5 3 1 2 2.</_></rects>
      <tilted>1</tilted></_>
    <_>
      <rects>
        <_>
          6 3 9 9 -1.</_>
        <_>
          9 6 3 3 9.</_></rects>
      <tilted>0</tilted></_>
    <_>
      <rects>
        <_>
          6 5 2 1 -1.</_>
        <_>
          7 5 1 1 2.</_></rects>
      <tilted>0</tilted></_>
    <_>
      <rects>
        <_>
          6 5 12 5 -1.</_>
        <_>
          10 5 4 5 3.</_></rects>
      <tilted>0</tilted></_>
    <_>
      <rects>
        <_>
          6 5 10 6 -1.</_>
        <_>
          6 7 10 2 3.</_></rects>
      <tilted>0</tilted></_>
    <_>
      <rects>
        <_>
          6 6 2 1 -1.</_>
        <_>
          7 6 1 1 2.</_></rects>
      <tilted>0</tilted></_>
    <_>
      <rects>
        <_>
          6 6 3 3 -1.</_>
        <_>
          7 7 1 1 9.</_></rects>
      <tilted>0</tilted></_>
    <_>
      <rects>
        <_>
          6 6 8 2 -1.</_>
        <_>
          6 6 4 1 2.</_>
        <_>
          10 7 4 1 2.</_></rects>
      <tilted>0</tilted></_>
    <_>
      <rects>
        <_>
          6 7 2 2 -1.</_>
        <_>
          6 7 2 1 2.</_></rects>
      <tilted>1</tilted></_>
    <_>
      <rects>
        <_>
          6 7 9 6 -1.</_>
        <_>
          9 9 3 2 9.</_></rects>
      <tilted>0</tilted></_>
    <_>
      <rects>
        <_>
          6 7 10 4 -1.</_>
        <_>
          11 7 5 4 2.</_></rects>
      <tilted>0</tilted></_>
    <_>
      <rects>
        <_>
          6 7 8 6 -1.</_>
        <_>
          6 9 8 2 3.</_></rects>
      <tilted>0</tilted></_>
    <_>
      <rects>
        <_>
          6 8 9 6 -1.</_>
        <_>
          9 10 3 2 9.</_></rects>
      <tilted>0</tilted></_>
    <_>
      <rects>
        <_>
          6 8 8 3 -1.</_>
        <_>
          6 9 8 1 3.</_></rects>
      <tilted>0</tilted></_>
    <_>
      <rects>
        <_>
          6 10 3 3 -1.</_>
        <_>
          7 11 1 1 9.</_></rects>
      <tilted>0</tilted></_>
    <_>
      <rects>
        <_>
          6 11 5 3 -1.</_>
        <_>
          6 12 5 1 3.</_></rects>
      <tilted>0</tilted></_>
    <_>
      <rects>
        <_>
          7 0 3 3 -1.</_>
        <_>
          8 1 1 1 9.</_></rects>
      <tilted>0</tilted></_>
    <_>
      <rects>
        <_>
          7 0 6 9 -1.</_>
        <_>
          9 3 2 3 9.</_></rects>
      <tilted>0</tilted></_>
    <_>
      <rects>
        <_>
          7 0 6 3 -1.</_>
        <_>
          7 1 6 1 3.</_></rects>
      <tilted>0</tilted></_>
    <_>
      <rects>
        <_>
          7 1 2 6 -1.</_>
        <_>
          7 1 1 3 2.</_>
        <_>
          8 4 1 3 2.</_></rects>
      <tilted>0</tilted></_>
    <_>
      <rects>
        <_>
          7 1 10 3 -1.</_>
        <_>
          7 1 5 3 2.</_></rects>
      <tilted>1</tilted></_>
    <_>
      <rects>
        <_>
          7 2 4 5 -1.</_>
        <_>
          8 3 2 5 2.</_></rects>
      <tilted>1</tilted></_>
    <_>
      <rects>
        <_>
          7 2 4 9 -1.</_>
        <_>
          8 2 2 9 2.</_></rects>
      <tilted>0</tilted></_>
    <_>
      <rects>
        <_>
          7 2 6 6 -1.</_>
        <_>
          9 4 2 2 9.</_></rects>
      <tilted>0</tilted></_>
    <_>
      <rects>
        <_>
          7 2 3 6 -1.</_>
        <_>
          7 4 3 2 3.</_></rects>
      <tilted>0</tilted></_>
    <_>
      <rects>
        <_>
          7 3 1 2 -1.</_>
        <_>
          7 3 1 1 2.</_></rects>
      <tilted>1</tilted></_>
    <_>
      <rects>
        <_>
          7 3 6 2 -1.</_>
        <_>
          7 3 6 1 2.</_></rects>
      <tilted>1</tilted></_>
    <_>
      <rects>
        <_>
          7 3 7 2 -1.</_>
        <_>
          7 4 7 1 2.</_></rects>
      <tilted>0</tilted></_>
    <_>
      <rects>
        <_>
          7 4 6 6 -1.</_>
        <_>
          9 6 2 2 9.</_></rects>
      <tilted>0</tilted></_>
    <_>
      <rects>
        <_>
          7 6 3 3 -1.</_>
        <_>
          8 7 1 1 9.</_></rects>
      <tilted>0</tilted></_>
    <_>
      <rects>
        <_>
          7 6 6 3 -1.</_>
        <_>
          9 7 2 1 9.</_></rects>
      <tilted>0</tilted></_>
    <_>
      <rects>
        <_>
          7 6 3 6 -1.</_>
        <_>
          7 8 3 2 3.</_></rects>
      <tilted>0</tilted></_>
    <_>
      <rects>
        <_>
          7 6 4 3 -1.</_>
        <_>
          7 7 4 1 3.</_></rects>
      <tilted>0</tilted></_>
    <_>
      <rects>
        <_>
          7 6 7 6 -1.</_>
        <_>
          7 8 7 2 3.</_></rects>
      <tilted>0</tilted></_>
    <_>
      <rects>
        <_>
          7 6 13 8 -1.</_>
        <_>
          7 10 13 4 2.</_></rects>
      <tilted>0</tilted></_>
    <_>
      <rects>
        <_>
          7 7 3 3 -1.</_>
        <_>
          8 8 1 1 9.</_></rects>
      <tilted>0</tilted></_>
    <_>
      <rects>
        <_>
          7 7 3 6 -1.</_>
        <_>
          7 9 3 2 3.</_></rects>
      <tilted>0</tilted></_>
    <_>
      <rects>
        <_>
          7 7 12 3 -1.</_>
        <_>
          11 8 4 1 9.</_></rects>
      <tilted>0</tilted></_>
    <_>
      <rects>
        <_>
          7 9 2 2 -1.</_>
        <_>
          8 9 1 2 2.</_></rects>
      <tilted>0</tilted></_>
    <_>
      <rects>
        <_>
          7 9 2 4 -1.</_>
        <_>
          7 10 2 2 2.</_></rects>
      <tilted>0</tilted></_>
    <_>
      <rects>
        <_>
          7 9 6 4 -1.</_>
        <_>
          7 10 6 2 2.</_></rects>
      <tilted>0</tilted></_>
    <_>
      <rects>
        <_>
          8 0 3 3 -1.</_>
        <_>
          8 1 3 1 3.</_></rects>
      <tilted>0</tilted></_>
    <_>
      <rects>
        <_>
          8 0 3 14 -1.</_>
        <_>
          8 7 3 7 2.</_></rects>
      <tilted>0</tilted></_>
    <_>
      <rects>
        <_>
          8 1 6 6 -1.</_>
        <_>
          8 1 3 6 2.</_></rects>
      <tilted>1</tilted></_>
    <_>
      <rects>
        <_>
          8 1 4 12 -1.</_>
        <_>
          8 5 4 4 3.</_></rects>
      <tilted>0</tilted></_>
    <_>
      <rects>
        <_>
          8 2 2 6 -1.</_>
        <_>
          8 2 1 3 2.</_>
        <_>
          9 5 1 3 2.</_></rects>
      <tilted>0</tilted></_>
    <_>
      <rects>
        <_>
          8 2 6 6 -1.</_>
        <_>
          10 4 2 2 9.</_></rects>
      <tilted>0</tilted></_>
    <_>
      <rects>
        <_>
          8 2 5 6 -1.</_>
        <_>
          8 4 5 2 3.</_></rects>
      <tilted>0</tilted></_>
    <_>
      <rects>
        <_>
          8 3 2 9 -1.</_>
        <_>
          9 3 1 9 2.</_></rects>
      <tilted>0</tilted></_>
    <_>
      <rects>
        <_>
          8 3 6 9 -1.</_>
        <_>
          10 6 2 3 9.</_></rects>
      <tilted>0</tilted></_>
    <_>
      <rects>
        <_>
          8 4 4 3 -1.</_>
        <_>
          9 5 2 3 2.</_></rects>
      <tilted>1</tilted></_>
    <_>
      <rects>
        <_>
          8 4 6 1 -1.</_>
        <_>
          11 4 3 1 2.</_></rects>
      <tilted>0</tilted></_>
    <_>
      <rects>
        <_>
          8 5 2 4 -1.</_>
        <_>
          8 6 2 2 2.</_></rects>
      <tilted>0</tilted></_>
    <_>
      <rects>
        <_>
          8 5 9 1 -1.</_>
        <_>
          11 5 3 1 3.</_></rects>
      <tilted>0</tilted></_>
    <_>
      <rects>
        <_>
          8 5 3 4 -1.</_>
        <_>
          8 6 3 2 2.</_></rects>
      <tilted>0</tilted></_>
    <_>
      <rects>
        <_>
          8 6 9 3 -1.</_>
        <_>
          11 7 3 1 9.</_></rects>
      <tilted>0</tilted></_>
    <_>
      <rects>
        <_>
          8 7 1 4 -1.</_>
        <_>
          8 8 1 2 2.</_></rects>
      <tilted>0</tilted></_>
    <_>
      <rects>
        <_>
          8 7 4 5 -1.</_>
        <_>
          9 7 2 5 2.</_></rects>
      <tilted>0</tilted></_>
    <_>
      <rects>
        <_>
          8 8 1 2 -1.</_>
        <_>
          8 9 1 1 2.</_></rects>
      <tilted>0</tilted></_>
    <_>
      <rects>
        <_>
          8 8 3 3 -1.</_>
        <_>
          9 9 1 1 9.</_></rects>
      <tilted>0</tilted></_>
    <_>
      <rects>
        <_>
          8 9 4 1 -1.</_>
        <_>
          9 9 2 1 2.</_></rects>
      <tilted>0</tilted></_>
    <_>
      <rects>
        <_>
          8 9 4 3 -1.</_>
        <_>
          8 10 4 1 3.</_></rects>
      <tilted>0</tilted></_>
    <_>
      <rects>
        <_>
          9 2 3 6 -1.</_>
        <_>
          10 2 1 6 3.</_></rects>
      <tilted>0</tilted></_>
    <_>
      <rects>
        <_>
          9 2 2 6 -1.</_>
        <_>
          9 4 2 2 3.</_></rects>
      <tilted>0</tilted></_>
    <_>
      <rects>
        <_>
          9 2 4 8 -1.</_>
        <_>
          9 4 4 4 2.</_></rects>
      <tilted>0</tilted></_>
    <_>
      <rects>
        <_>
          9 3 1 2 -1.</_>
        <_>
          9 4 1 1 2.</_></rects>
      <tilted>0</tilted></_>
    <_>
      <rects>
        <_>
          9 3 6 6 -1.</_>
        <_>
          11 5 2 2 9.</_></rects>
      <tilted>0</tilted></_>
    <_>
      <rects>
        <_>
          9 3 2 9 -1.</_>
        <_>
          9 6 2 3 3.</_></rects>
      <tilted>0</tilted></_>
    <_>
      <rects>
        <_>
          9 3 4 6 -1.</_>
        <_>
          9 6 4 3 2.</_></rects>
      <tilted>0</tilted></_>
    <_>
      <rects>
        <_>
          9 4 1 2 -1.</_>
        <_>
          9 5 1 1 2.</_></rects>
      <tilted>0</tilted></_>
    <_>
      <rects>
        <_>
          9 5 1 4 -1.</_>
        <_>
          9 6 1 2 2.</_></rects>
      <tilted>0</tilted></_>
    <_>
      <rects>
        <_>
          9 5 2 4 -1.</_>
        <_>
          9 6 2 2 2.</_></rects>
      <tilted>0</tilted></_>
    <_>
      <rects>
        <_>
          9 5 9 3 -1.</_>
        <_>
          12 6 3 1 9.</_></rects>
      <tilted>0</tilted></_>
    <_>
      <rects>
        <_>
          9 6 6 3 -1.</_>
        <_>
          11 7 2 1 9.</_></rects>
      <tilted>0</tilted></_>
    <_>
      <rects>
        <_>
          9 6 9 3 -1.</_>
        <_>
          12 7 3 1 9.</_></rects>
      <tilted>0</tilted></_>
    <_>
      <rects>
        <_>
          9 7 1 2 -1.</_>
        <_>
          9 8 1 1 2.</_></rects>
      <tilted>0</tilted></_>
    <_>
      <rects>
        <_>
          9 7 6 1 -1.</_>
        <_>
          12 7 3 1 2.</_></rects>
      <tilted>0</tilted></_>
    <_>
      <rects>
        <_>
          9 7 3 3 -1.</_>
        <_>
          9 8 3 1 3.</_></rects>
      <tilted>0</tilted></_>
    <_>
      <rects>
        <_>
          9 10 2 1 -1.</_>
        <_>
          10 10 1 1 2.</_></rects>
      <tilted>0</tilted></_>
    <_>
      <rects>
        <_>
          9 11 2 1 -1.</_>
        <_>
          10 11 1 1 2.</_></rects>
      <tilted>0</tilted></_>
    <_>
      <rects>
        <_>
          10 0 2 2 -1.</_>
        <_>
          10 0 1 1 2.</_>
        <_>
          11 1 1 1 2.</_></rects>
      <tilted>0</tilted></_>
    <_>
      <rects>
        <_>
          10 0 2 8 -1.</_>
        <_>
          10 0 1 4 2.</_>
        <_>
          11 4 1 4 2.</_></rects>
      <tilted>0</tilted></_>
    <_>
      <rects>
        <_>
          10 1 9 3 -1.</_>
        <_>
          13 2 3 1 9.</_></rects>
      <tilted>0</tilted></_>
    <_>
      <rects>
        <_>
          10 2 6 1 -1.</_>
        <_>
          12 2 2 1 3.</_></rects>
      <tilted>0</tilted></_>
    <_>
      <rects>
        <_>
          10 2 9 3 -1.</_>
        <_>
          13 3 3 1 9.</_></rects>
      <tilted>0</tilted></_>
    <_>
      <rects>
        <_>
          10 4 3 3 -1.</_>
        <_>
          11 5 1 1 9.</_></rects>
      <tilted>0</tilted></_>
    <_>
      <rects>
        <_>
          10 4 6 9 -1.</_>
        <_>
          12 7 2 3 9.</_></rects>
      <tilted>0</tilted></_>
    <_>
      <rects>
        <_>
          10 5 2 2 -1.</_>
        <_>
          10 5 1 1 2.</_>
        <_>
          11 6 1 1 2.</_></rects>
      <tilted>0</tilted></_>
    <_>
      <rects>
        <_>
          10 6 1 4 -1.</_>
        <_>
          9 7 1 2 2.</_></rects>
      <tilted>1</tilted></_>
    <_>
      <rects>
        <_>
          10 6 3 6 -1.</_>
        <_>
          11 8 1 2 9.</_></rects>
      <tilted>0</tilted></_>
    <_>
      <rects>
        <_>
          10 6 2 4 -1.</_>
        <_>
          10 7 2 2 2.</_></rects>
      <tilted>0</tilted></_>
    <_>
      <rects>
        <_>
          10 7 1 6 -1.</_>
        <_>
          10 9 1 2 3.</_></rects>
      <tilted>0</tilted></_>
    <_>
      <rects>
        <_>
          10 9 9 3 -1.</_>
        <_>
          13 9 3 3 3.</_></rects>
      <tilted>0</tilted></_>
    <_>
      <rects>
        <_>
          11 0 4 1 -1.</_>
        <_>
          12 0 2 1 2.</_></rects>
      <tilted>0</tilted></_>
    <_>
      <rects>
        <_>
          11 0 6 11 -1.</_>
        <_>
          13 0 2 11 3.</_></rects>
      <tilted>0</tilted></_>
    <_>
      <rects>
        <_>
          11 1 4 8 -1.</_>
        <_>
          11 1 4 4 2.</_></rects>
      <tilted>1</tilted></_>
    <_>
      <rects>
        <_>
          11 2 1 6 -1.</_>
        <_>
          11 4 1 2 3.</_></rects>
      <tilted>0</tilted></_>
    <_>
      <rects>
        <_>
          11 2 6 11 -1.</_>
        <_>
          13 2 2 11 3.</_></rects>
      <tilted>0</tilted></_>
    <_>
      <rects>
        <_>
          11 2 8 2 -1.</_>
        <_>
          11 2 4 1 2.</_>
        <_>
          15 3 4 1 2.</_></rects>
      <tilted>0</tilted></_>
    <_>
      <rects>
        <_>
          11 5 1 3 -1.</_>
        <_>
          11 6 1 1 3.</_></rects>
      <tilted>0</tilted></_>
    <_>
      <rects>
        <_>
          11 6 1 3 -1.</_>
        <_>
          11 7 1 1 3.</_></rects>
      <tilted>0</tilted></_>
    <_>
      <rects>
        <_>
          11 6 4 4 -1.</_>
        <_>
          11 6 2 2 2.</_>
        <_>
          13 8 2 2 2.</_></rects>
      <tilted>0</tilted></_>
    <_>
      <rects>
        <_>
          11 8 4 2 -1.</_>
        <_>
          11 8 2 1 2.</_>
        <_>
          13 9 2 1 2.</_></rects>
      <tilted>0</tilted></_>
    <_>
      <rects>
        <_>
          11 8 9 3 -1.</_>
        <_>
          14 9 3 1 9.</_></rects>
      <tilted>0</tilted></_>
    <_>
      <rects>
        <_>
          11 9 2 3 -1.</_>
        <_>
          11 10 2 1 3.</_></rects>
      <tilted>0</tilted></_>
    <_>
      <rects>
        <_>
          11 13 8 1 -1.</_>
        <_>
          15 13 4 1 2.</_></rects>
      <tilted>0</tilted></_>
    <_>
      <rects>
        <_>
          12 0 8 14 -1.</_>
        <_>
          16 0 4 14 2.</_></rects>
      <tilted>0</tilted></_>
    <_>
      <rects>
        <_>
          12 1 2 3 -1.</_>
        <_>
          13 1 1 3 2.</_></rects>
      <tilted>0</tilted></_>
    <_>
      <rects>
        <_>
          12 2 3 1 -1.</_>
        <_>
          13 2 1 1 3.</_></rects>
      <tilted>0</tilted></_>
    <_>
      <rects>
        <_>
          12 2 3 3 -1.</_>
        <_>
          13 3 1 1 9.</_></rects>
      <tilted>0</tilted></_>
    <_>
      <rects>
        <_>
          12 2 4 10 -1.</_>
        <_>
          13 2 2 10 2.</_></rects>
      <tilted>0</tilted></_>
    <_>
      <rects>
        <_>
          12 3 3 3 -1.</_>
        <_>
          13 4 1 1 9.</_></rects>
      <tilted>0</tilted></_>
    <_>
      <rects>
        <_>
          12 4 8 2 -1.</_>
        <_>
          12 5 8 1 2.</_></rects>
      <tilted>0</tilted></_>
    <_>
      <rects>
        <_>
          12 5 2 1 -1.</_>
        <_>
          13 5 1 1 2.</_></rects>
      <tilted>0</tilted></_>
    <_>
      <rects>
        <_>
          12 5 1 2 -1.</_>
        <_>
          12 5 1 1 2.</_></rects>
      <tilted>1</tilted></_>
    <_>
      <rects>
        <_>
          12 6 2 1 -1.</_>
        <_>
          13 6 1 1 2.</_></rects>
      <tilted>0</tilted></_>
    <_>
      <rects>
        <_>
          12 8 3 1 -1.</_>
        <_>
          13 8 1 1 3.</_></rects>
      <tilted>0</tilted></_>
    <_>
      <rects>
        <_>
          12 10 2 1 -1.</_>
        <_>
          13 10 1 1 2.</_></rects>
      <tilted>0</tilted></_>
    <_>
      <rects>
        <_>
          13 1 2 1 -1.</_>
        <_>
          13 1 1 1 2.</_></rects>
      <tilted>1</tilted></_>
    <_>
      <rects>
        <_>
          13 3 6 4 -1.</_>
        <_>
          13 5 6 2 2.</_></rects>
      <tilted>0</tilted></_>
    <_>
      <rects>
        <_>
          13 5 4 1 -1.</_>
        <_>
          14 5 2 1 2.</_></rects>
      <tilted>0</tilted></_>
    <_>
      <rects>
        <_>
          13 7 3 3 -1.</_>
        <_>
          14 8 1 1 9.</_></rects>
      <tilted>0</tilted></_>
    <_>
      <rects>
        <_>
          13 7 3 6 -1.</_>
        <_>
          14 9 1 2 9.</_></rects>
      <tilted>0</tilted></_>
    <_>
      <rects>
        <_>
          13 9 3 3 -1.</_>
        <_>
          14 10 1 1 9.</_></rects>
      <tilted>0</tilted></_>
    <_>
      <rects>
        <_>
          13 11 3 1 -1.</_>
        <_>
          14 11 1 1 3.</_></rects>
      <tilted>0</tilted></_>
    <_>
      <rects>
        <_>
          13 11 2 3 -1.</_>
        <_>
          13 12 2 1 3.</_></rects>
      <tilted>0</tilted></_>
    <_>
      <rects>
        <_>
          13 12 6 2 -1.</_>
        <_>
          13 13 6 1 2.</_></rects>
      <tilted>0</tilted></_>
    <_>
      <rects>
        <_>
          14 0 3 10 -1.</_>
        <_>
          14 0 3 5 2.</_></rects>
      <tilted>1</tilted></_>
    <_>
      <rects>
        <_>
          14 1 6 1 -1.</_>
        <_>
          16 1 2 1 3.</_></rects>
      <tilted>0</tilted></_>
    <_>
      <rects>
        <_>
          14 5 3 3 -1.</_>
        <_>
          15 6 1 1 9.</_></rects>
      <tilted>0</tilted></_>
    <_>
      <rects>
        <_>
          14 5 2 1 -1.</_>
        <_>
          14 5 1 1 2.</_></rects>
      <tilted>1</tilted></_>
    <_>
      <rects>
        <_>
          14 7 6 6 -1.</_>
        <_>
          16 9 2 2 9.</_></rects>
      <tilted>0</tilted></_>
    <_>
      <rects>
        <_>
          14 9 1 2 -1.</_>
        <_>
          14 10 1 1 2.</_></rects>
      <tilted>0</tilted></_>
    <_>
      <rects>
        <_>
          15 1 1 8 -1.</_>
        <_>
          15 1 1 4 2.</_></rects>
      <tilted>1</tilted></_>
    <_>
      <rects>
        <_>
          15 4 1 3 -1.</_>
        <_>
          15 5 1 1 3.</_></rects>
      <tilted>0</tilted></_>
    <_>
      <rects>
        <_>
          15 4 5 4 -1.</_>
        <_>
          15 6 5 2 2.</_></rects>
      <tilted>0</tilted></_>
    <_>
      <rects>
        <_>
          15 6 2 1 -1.</_>
        <_>
          16 6 1 1 2.</_></rects>
      <tilted>0</tilted></_>
    <_>
      <rects>
        <_>
          15 9 4 1 -1.</_>
        <_>
          16 9 2 1 2.</_></rects>
      <tilted>0</tilted></_>
    <_>
      <rects>
        <_>
          16 0 3 6 -1.</_>
        <_>
          17 2 1 2 9.</_></rects>
      <tilted>0</tilted></_>
    <_>
      <rects>
        <_>
          16 0 4 4 -1.</_>
        <_>
          18 0 2 4 2.</_></rects>
      <tilted>0</tilted></_>
    <_>
      <rects>
        <_>
          16 1 3 3 -1.</_>
        <_>
          17 2 1 1 9.</_></rects>
      <tilted>0</tilted></_>
    <_>
      <rects>
        <_>
          16 1 4 6 -1.</_>
        <_>
          14 3 4 2 3.</_></rects>
      <tilted>1</tilted></_>
    <_>
      <rects>
        <_>
          16 2 2 12 -1.</_>
        <_>
          17 2 1 12 2.</_></rects>
      <tilted>0</tilted></_>
    <_>
      <rects>
        <_>
          16 3 4 9 -1.</_>
        <_>
          17 3 2 9 2.</_></rects>
      <tilted>0</tilted></_>
    <_>
      <rects>
        <_>
          16 4 2 10 -1.</_>
        <_>
          16 4 1 5 2.</_>
        <_>
          17 9 1 5 2.</_></rects>
      <tilted>0</tilted></_>
    <_>
      <rects>
        <_>
          16 5 1 2 -1.</_>
        <_>
          16 6 1 1 2.</_></rects>
      <tilted>0</tilted></_>
    <_>
      <rects>
        <_>
          16 5 4 3 -1.</_>
        <_>
          17 5 2 3 2.</_></rects>
      <tilted>0</tilted></_>
    <_>
      <rects>
        <_>
          16 5 4 7 -1.</_>
        <_>
          17 5 2 7 2.</_></rects>
      <tilted>0</tilted></_>
    <_>
      <rects>
        <_>
          16 7 2 2 -1.</_>
        <_>
          16 8 2 1 2.</_></rects>
      <tilted>0</tilted></_>
    <_>
      <rects>
        <_>
          16 8 2 6 -1.</_>
        <_>
          17 8 1 6 2.</_></rects>
      <tilted>0</tilted></_>
    <_>
      <rects>
        <_>
          16 9 1 2 -1.</_>
        <_>
          16 10 1 1 2.</_></rects>
      <tilted>0</tilted></_>
    <_>
      <rects>
        <_>
          16 10 3 3 -1.</_>
        <_>
          17 11 1 1 9.</_></rects>
      <tilted>0</tilted></_>
    <_>
      <rects>
        <_>
          17 0 2 3 -1.</_>
        <_>
          17 0 1 3 2.</_></rects>
      <tilted>1</tilted></_>
    <_>
      <rects>
        <_>
          17 0 3 8 -1.</_>
        <_>
          17 4 3 4 2.</_></rects>
      <tilted>0</tilted></_>
    <_>
      <rects>
        <_>
          17 3 3 6 -1.</_>
        <_>
          18 5 1 2 9.</_></rects>
      <tilted>0</tilted></_>
    <_>
      <rects>
        <_>
          17 3 3 2 -1.</_>
        <_>
          17 3 3 1 2.</_></rects>
      <tilted>1</tilted></_>
    <_>
      <rects>
        <_>
          17 4 3 6 -1.</_>
        <_>
          18 4 1 6 3.</_></rects>
      <tilted>0</tilted></_>
    <_>
      <rects>
        <_>
          17 5 2 1 -1.</_>
        <_>
          17 5 1 1 2.</_></rects>
      <tilted>1</tilted></_>
    <_>
      <rects>
        <_>
          17 5 2 2 -1.</_>
        <_>
          17 5 1 2 2.</_></rects>
      <tilted>1</tilted></_>
    <_>
      <rects>
        <_>
          17 5 3 5 -1.</_>
        <_>
          18 5 1 5 3.</_></rects>
      <tilted>0</tilted></_>
    <_>
      <rects>
        <_>
          17 5 3 6 -1.</_>
        <_>
          18 5 1 6 3.</_></rects>
      <tilted>0</tilted></_>
    <_>
      <rects>
        <_>
          17 5 3 7 -1.</_>
        <_>
          18 5 1 7 3.</_></rects>
      <tilted>0</tilted></_>
    <_>
      <rects>
        <_>
          17 6 3 4 -1.</_>
        <_>
          18 6 1 4 3.</_></rects>
      <tilted>0</tilted></_>
    <_>
      <rects>
        <_>
          17 7 1 2 -1.</_>
        <_>
          17 8 1 1 2.</_></rects>
      <tilted>0</tilted></_>
    <_>
      <rects>
        <_>
          17 8 1 2 -1.</_>
        <_>
          17 9 1 1 2.</_></rects>
      <tilted>0</tilted></_>
    <_>
      <rects>
        <_>
          18 0 2 2 -1.</_>
        <_>
          18 1 2 1 2.</_></rects>
      <tilted>0</tilted></_>
    <_>
      <rects>
        <_>
          18 0 2 3 -1.</_>
        <_>
          18 1 2 1 3.</_></rects>
      <tilted>0</tilted></_>
    <_>
      <rects>
        <_>
          18 2 2 12 -1.</_>
        <_>
          18 5 2 6 2.</_></rects>
      <tilted>0</tilted></_>
    <_>
      <rects>
        <_>
          18 4 2 5 -1.</_>
        <_>
          19 4 1 5 2.</_></rects>
      <tilted>0</tilted></_>
    <_>
      <rects>
        <_>
          18 4 2 4 -1.</_>
        <_>
          18 5 2 2 2.</_></rects>
      <tilted>0</tilted></_>
    <_>
      <rects>
        <_>
          18 6 1 6 -1.</_>
        <_>
          18 9 1 3 2.</_></rects>
      <tilted>0</tilted></_>
    <_>
      <rects>
        <_>
          18 10 1 3 -1.</_>
        <_>
          17 11 1 1 3.</_></rects>
      <tilted>1</tilted></_>
    <_>
      <rects>
        <_>
          19 2 1 12 -1.</_>
        <_>
          19 8 1 6 2.</_></rects>
      <tilted>0</tilted></_>
    <_>
      <rects>
        <_>
          19 4 1 3 -1.</_>
        <_>
          19 5 1 1 3.</_></rects>
      <tilted>0</tilted></_>
    <_>
      <rects>
        <_>
          19 9 1 4 -1.</_>
        <_>
          19 9 1 2 2.</_></rects>
      <tilted>1</tilted></_>
    <_>
      <rects>
        <_>
          19 10 1 2 -1.</_>
        <_>
          19 10 1 1 2.</_></rects>
      <tilted>1</tilted></_></features></cascade>
</opencv_storage>
